<?xml version="1.0"?>
<opencv_storage>
<opencv_ml_svm>
  <format>3</format>
  <svmType>C_SVC</svmType>
  <kernel>
    <type>LINEAR</type></kernel>
  <C>1.0000000000000000e-002</C>
  <term_criteria><iterations>3000</iterations></term_criteria>
  <var_count>8100</var_count>
  <class_count>10</class_count>
  <class_labels type_id="opencv-matrix">
    <rows>10</rows>
    <cols>1</cols>
    <dt>i</dt>
    <data>
      0 1 2 3 4 5 6 7 8 9</data></class_labels>
  <sv_total>45</sv_total>
  <support_vectors>
    <_>
      0. 0. 0. 0. 0. 0. 0. 0. 0. 0. 0. 0. 0. 0. 0. 0. 0. 0. 0. 0. 0. 0.
      0. 0. 0. 0. 0. 0. 0. 0. 0. 0. 0. 0. 0. 0. 0. 0. 0. 0. 0. 0. 0. 0.
      0. 0. 0. 0. 0. 0. 0. 0. 0. 0. 0. 0. 0. 0. 0. 0. 0. 0. 0. 0. 0. 0.
      0. 0. 0. 0. 0. 0. 0. 0. 0. 0. 0. 0. 0. 0. 0. 0. 0. 0. 0. 0. 0. 0.
      0. 0. 0. 0. 0. 0. 0. 0. 0. 0. 0. 0. 0. 0. 0. 0. 0. 0. 0. 0. 0. 0.
      0. 0. 0. 0. 0. 0. 0. 0. 0. 0. 0. 0. 0. 0. 0. 0. 0. 0. 0. 0. 0. 0.
      0. 0. 0. 0. 0. 0. 0. 0. 0. 0. 0. 0. 0. 0. 0. 0. 0. 0. 0. 0. 0. 0.
      0. 0. 0. 0. 0. 0. 0. 0. 0. 0. 0. 0. 0. 0. 0. 0. 0. 0. 0. 0. 0. 0.
      0. 0. 0. 0. 0. 0. 0. 0. 0. 0. 0. 0. 0. 0. 0. 0. 0. 0. 0. 0. 0. 0.
      0. 0. 0. 0. 0. 0. 0. 0. 0. 0. 0. 0. 0. 0. 0. 0. 0. 0. 0. 0. 0. 0.
      0. 0. 0. 0. 0. 0. 0. 0. 0. 0. 0. 0. 0. 0. 0. 0. 0. 0. 0. 0. 0. 0.
      0. 0. 0. 0. 0. 0. 0. 0. 0. 0. 0. 0. 0. 0. 0. 0. 0. 0. 0. 0. 0. 0.
      0. 0. 0. 0. 0. 0. 0. 0. 0. 0. 0. 0. 0. 0. 0. 0. 0. 0. 0. 0. 0. 0.
      0. 0. 0. 0. 0. 0. 0. 0. 0. 0. 0. 0. 0. 0. 0. 0. 0. 0. 0. 0. 0. 0.
      0. 0. 0. 0. 0. 0. 0. 0. 0. 0. 0. 0. 0. 0. 0. 0. 0. 0. 0. 0. 0. 0.
      0. 0. 0. 0. 0. 0. 0. 0. 0. 0. 0. 0. 0. 0. 0. 0. 0. 0. 0. 0. 0. 0.
      0. 0. 0. 0. 0. 0. 0. 0. 0. 0. 0. 0. 0. 0. 0. 0. 0. 0. 0. 0. 0. 0.
      0. 0. 0. 0. 0. 0. 0. 0. 0. 0. 0. 0. 0. 0. 0. 0. 0. 0. 0. 0. 0. 0.
      0. 0. 0. 0. 0. 0. 0. 0. 0. 0. 0. 0. 0. 0. 0. 0. 0. 0. 0. 0. 0. 0.
      0. 0. 0. 0. 0. 0. 0. 0. 0. 0. 0. 0. 0. 0. 0. 0. 0. 0. 0. 0. 0. 0.
      0. 0. 0. 0. 0. 0. 0. 0. 0. 0. 0. 0. 0. 0. 0. 0. 0. 0. 0. 0. 0. 0.
      0. 0. 0. 0. 0. 0. 0. 0. 0. 0. 0. 0. 0. 0. 0. 0. 0. 0. 0. 0. 0. 0.
      0. 0. 0. 0. 0. 0. 0. 0. 0. 0. 0. 0. 0. 0. 0. 0. 0. 0. 0. 0. 0. 0.
      0. 0. 0. 0. 0. 0. 0. 0. 0. 0. 0. 0. 0. 0. 0. 0. 0. 0. 0. 0. 0. 0.
      0. 0. 0. 0. 0. 0. 0. 0. 0. 0. 0. 0. 0. 0. 0. 0. 0. 0. 0. 0. 0. 0.
      0. 0. 0. 0. 0. 0. 0. 0. 0. 0. 0. 0. 0. 0. 0. 0. 0. 0. 0. 0. 0. 0.
      0. 0. 0. 0. 0. 0. 0. 0. 0. 0. 0. 0. 0. 0. 0. 0. 0. 0. 0. 0. 0. 0.
      0. 0. 0. 0. 0. 0. 0. 0. 0. 0. 0. 0. 0. 0. 0. 0. 0. 0. 0. 0. 0. 0.
      0. 0. 0. 0. 0. 0. 0. 0. 0. 0. 0. 0. 0. 0. 0. 0. 0. 0. 0. 0. 0. 0.
      0. 0. 0. 0. 0. 0. 0. 0. 0. 0. 0. 0. 0. 0. 0. 0. 0. 0. 0. 0. 0. 0.
      0. 0. 0. 0. 0. 0. 0. 0. 0. 0. 0. 0. 0. 0. 0. 0. 0. 0. 0. 0. 0. 0.
      0. 0. 0. 0. 0. 0. 0. 0. 0. 0. 0. 0. 0. 0. 0. 0. 0. 0. 0. 0. 0. 0.
      0. 0. 0. 0. 0. 0. 0. 0. 0. 0. 0. 0. 0. 0. 0. 0. 0. 0. 0. 0. 0. 0.
      0. 0. 0. 0. 0. 0. 0. 0. 0. 0. 0. 0. 0. 0. 0. 0. 0. 0. 0. 0. 0. 0.
      0. 0. 0. 0. 0. 0. 0. 0. 0. 0. 0. 0. 0. 0. 0. 0. 0. 0. 0. 0. 0. 0.
      0. 0. 0. 0. 0. 0. 0. 0. 0. 0. 0. 0. 0. 0. 0. 0. 0. 0. 0. 0. 0. 0.
      0. 0. 0. 0. 0. 0. 0. 0. 0. 0. 0. 0. 0. 0. 0. 0. 0. 0. 0. 0. 0. 0.
      0. 0. 0. 0. 0. 0. 0. 0. 0. 0. 0. 0. 0. 0. 0. 0. 0. 0. 0. 0. 0. 0.
      0. 0. 0. 0. 0. 0. 0. 0. 0. 0. 0. 0. 0. 0. 0. 0. 0. 0. 0. 0. 0. 0.
      0. 0. 0. 0. 0. 0. 0. 0. 0. 0. 0. 0. 0. 0. 0. 0. 0. 0. 0. 0. 0. 0.
      0. 0. 0. 0. 0. 0. 0. 0. 0. 0. 0. 0. 0. 0. 0. 0. 0. 0. 0. 0. 0. 0.
      0. 0. 0. 0. 0. 0. 0. 0. 0. 0. 0. 0. 0. 0. 0. 0. 0. 0. 0. 0. 0. 0.
      0. 0. 0. 0. 0. 0. 0. 0. 0. 0. 0. 0. 0. 0. 0. 0. 0. 0. 0. 0. 0. 0.
      0. 0. 0. 0. 0. 0. 0. 0. 0. 0. 0. 0. 0. 0. 0. 0. 0. 0. 0. 0. 0. 0.
      0. 0. 0. 0. 0. 0. 0. 0. 0. 0. 0. 0. 0. 0. 0. 0. 0. 0. 0. 0. 0. 0.
      0. 0. 0. 0. 0. 0. 0. 0. 0. 0. 0. 0. 0. 0. 0. 0. 0. 0. 0. 0. 0. 0.
      0. 0. 0. 0. 0. 0. 0. 0. 0. 0. 0. 0. 0. 0. 0. 0. 0. 0. 0. 0. 0. 0.
      0. 0. 0. 0. 0. 0. 0. 0. 0. 0. 0. 0. 0. 0. 0. 0. 0. 0. 0. 0. 0. 0.
      0. 0. 0. 0. 0. 0. 0. 0. 0. 0. 0. 0. 0. 0. 0. 0. 0. 0. 0. 0. 0. 0.
      0. 0. 0. 0. 0. 0. 0. 0. 0. 0. 0. 0. 0. 0. 0. 0. 0. 0. 0. 0. 0. 0.
      0. 0. 0. 0. 0. 0. 0. 0. 0. 0. 0. 0. 0. 0. 0. 0. 0. 0. 0. 0. 0. 0.
      0. 0. 0. 0. 0. 0. 0. 0. 0. 0. 0. 0. 0. 0. 0. 0. 0. 0. 0. 0. 0. 0.
      0. 0. 0. 0. 0. 0. 0. 0. 0. 0. 0. 0. 0. 0. 0. 0. 0. 0. 0. 0. 0. 0.
      0. 0. 0. 0. 0. 0. 0. 0. 0. 0. 0. 0. 0. 0. 0. 0. 0. 0. 0. 0. 0. 0.
      0. 0. 0. 0. 0. 0. 0. 0. 0. 0. 0. 0. 0. 0. 0. 0. 0. 0. 0. 0. 0. 0.
      0. 0. 0. 0. 0. 0. 0. 0. 0. 0. 0. 0. 0. 0. 0. 0. 0. 0. 0. 0. 0. 0.
      0. 0. 0. 0. 0. 0. 0. 0. 0. 0. 0. 0. 0. 0. 0. 0. 0. 0. 0. 0. 0. 0.
      0. 0. 0. 0. 0. 0. 0. 0. 0. 0. 0. 0. 0. 0. 0. 0. 0. 0. 0. 0. 0. 0.
      0. 0. 0. 0. 0. 0. 0. 0. 0. 0. 0. 0. 0. 0. 0. 0. 0. 0. 0. 0. 0. 0.
      0. 0. 0. 0. 0. 0. 0. 0. 0. 0. 0. 0. 0. 0. 0. 0. 0. 0. 0. 0. 0. 0.
      0. 0. 0. 0. 0. 0. 0. 0. 0. 0. 0. 0. 0. 0. 0. 0. 0. 0. 0. 0. 0. 0.
      0. 0. 0. 0. 0. 0. 0. 0. 0. 0. 0. 0. 0. 0. 0. 0. 0. 0. 0. 0. 0. 0.
      0. 0. 0. 0. 0. 0. 0. 0. 0. 0. 0. 0. 0. 0. 0. 0. 0. 0. 0. 0. 0. 0.
      0. 0. 0. 0. 0. 0. 0. 0. 0. 0. 0. 0. 0. 0. 0. 0. 0. 0. 0. 0. 0. 0.
      0. 0. 0. 0. 0. 0. 0. 0. 0. 0. 0. 0. 0. 0. 0. 0. 0. 0. 0. 0. 0. 0.
      0. 0. 0. 0. 0. 0. 0. 0. 0. 0. 0. 0. 0. 0. 0. 0. 0. 0. 0. 0. 0. 0.
      0. 0. 0. 0. 0. 0. 0. 0. 0. 0. 0. 0. 0. 0. 0. 0. 0. 0. 0. 0. 0. 0.
      0. 0. 0. 0. 0. 0. 0. 0. 0. 0. 0. 0. 0. 0. 0. 0. 0. 0. 0. 0. 0. 0.
      0. 0. 0. 0. 0. 0. 0. 0. 0. 0. 0. 0. 0. 0. 0. 0. 0. 0. 0. 0. 0. 0.
      0. 0. 0. 0. 0. 0. 0. 0. 0. 0. 0. 0. 0. 0. 0. 0. 0. 0. 0. 0. 0. 0.
      0. 0. 0. 0. 0. 0. 0. 0. 0. 0. 0. 0. 0. 0. 0. 0. 0. 0. 0. 0. 0. 0.
      0. 0. 0. 0. 0. 0. 0. 0. 0. 0. 0. 0. 0. 0. 0. 0. 0. 0. 0. 0. 0. 0.
      0. 0. 0. 0. 0. 0. 0. 0. 0. 0. 0. 0. 0. 0. 0. 0. 0. 0. 0. 0. 0. 0.
      0. 0. 0. 0. 0. 0. 0. 0. 0. 0. 0. 0. 0. 0. 0. 0. 0. 0. 0. 0. 0. 0.
      0. 0. 0. 0. 0. 0. 0. 0. 0. 0. 0. 0. 0. 0. 0. 0. 0. 0. 0. 0. 0. 0.
      0. 0. 0. 0. 0. 0. 0. 0. 0. 0. 0. 0. 0. 0. 0. 0. 0. 0. 0. 0. 0. 0.
      0. 0. 0. 0. 0. 0. 0. 0. 0. 0. 0. 0. 0. 0. 0. 0. 0. 0. 0. 0. 0. 0.
      0. 0. 0. 0. 0. 0. 0. 0. 0. 0. 0. 0. 0. 0. 0. 0. -1.03882412e-004
      0. 0. 0. 0. 0. 0. 0. -1.03882412e-004 -1.49634306e-003
      -9.28484369e-004 -1.49634306e-003 0. 0. 0. 0. 0. -1.49634306e-003
      0. 0. 0. 0. 0. 0. 0. 0. 0. -2.23039151e-005 0. 0. 0. 0. 0. 0. 0.
      -2.23039151e-005 -1.02386170e-003 -3.21695581e-004
      -9.62635851e-004 0. 0. 0. 0. 0. -1.02386170e-003 -1.61171344e-003
      -1.40854332e-003 -1.61171344e-003 0. 0. 0. 0. 0. -1.61171344e-003
      -8.02645591e-005 -1.32698106e-005 -3.97083386e-005 0. 0. 0. 0. 0.
      -8.02645591e-005 -4.00698045e-004 -8.11530044e-005
      -2.42840732e-004 0. 0. 0. 0. 0. -4.00698045e-004 -1.43282244e-003
      -7.38619652e-004 -1.37646275e-003 0. 0. 0. 0. 0. -1.43282244e-003
      -1.43282244e-003 -8.46894574e-004 -1.43282244e-003 0. 0. 0. 0. 0.
      -1.43282244e-003 -5.28589997e-004 -7.68323953e-005
      -2.29911864e-004 0. 0. 0. 0. 0. -5.28589997e-004 -9.10264731e-004
      -1.30960208e-004 -3.91882873e-004 0. 0. 0. 0. 0. -9.10264731e-004
      -1.87884679e-003 -4.16832132e-004 -1.18192495e-003 0. 0. 0. 0. 0.
      -1.87884679e-003 -3.41843069e-003 -4.36116912e-004
      -1.29932968e-003 0. 0. 0. 0. 0. -3.41843069e-003 -9.74150316e-004
      -5.68836622e-005 -1.70217609e-004 0. 0. 0. 0. 0. -9.74150316e-004
      -1.00737158e-003 0. 0. 0. 0. 0. 0. 0. -1.00737158e-003
      -3.24282865e-003 -2.55149323e-004 -7.63504067e-004 0. 0. 0. 0. 0.
      -3.24282865e-003 -3.90004856e-003 -7.07155676e-004
      -1.25542225e-003 0. 0. 0. 0. 0. -3.90004856e-003 -1.01638399e-003
      -3.04218725e-006 -9.10338440e-006 0. 0. 0. 0. 0. -1.01638399e-003
      -1.09002122e-003 -1.17571253e-005 -3.51817980e-005 0. 0. 0.
      -2.95037407e-005 -9.85965835e-006 -1.09002122e-003
      -3.70302820e-003 -2.36680498e-004 -7.08238222e-004 0. 0. 0. 0. 0.
      -3.70302820e-003 -3.70302820e-003 -4.03532322e-004
      -1.19130581e-003 0. 0. 0. -6.49082285e-005 -2.16912467e-005
      -3.70302820e-003 -1.05900562e-003 -2.05446868e-005
      -6.14775417e-005 0. 0. 0. -2.60913454e-004 -8.71929151e-005
      -1.05900562e-003 -9.63023282e-004 -1.84206801e-005
      -5.51217017e-005 0. 0. 0. -4.40535048e-004 -1.47219456e-004
      -9.63023282e-004 -3.73198185e-003 -1.69427731e-004
      -5.06992452e-004 0. 0. 0. -5.88234863e-004 -1.96578301e-004
      -3.73198185e-003 -3.73198185e-003 -7.98229521e-005
      -2.38860724e-004 0. 0. 0. -9.12699441e-004 -4.73458873e-004
      -3.73198185e-003 -6.77490956e-004 -1.30346189e-006
      -3.90045534e-006 0. 0. 0. -2.65200069e-004 -8.86254202e-005
      -6.77490956e-004 -4.50134685e-004 0. 0. 0. 0. 0. -5.97219296e-005
      -1.99580718e-005 -4.50134685e-004 -3.87164718e-003
      -5.64833545e-006 -1.69019731e-005 0. 0. 0. -1.03622326e-003
      -5.98019047e-004 -3.87164718e-003 -3.87164718e-003 0. 0. 0. 0. 0.
      -1.03622326e-003 -6.28692564e-004 -3.87164718e-003
      -3.07647424e-004 0. 0. 0. 0. 0. -8.19670095e-006 -2.73920068e-006
      -3.07647424e-004 -3.28535913e-004 0. 0. 0. 0. 0. 0. 0.
      -3.28535913e-004 -3.88624007e-003 0. 0. 0. 0. 0. -1.05989887e-003
      -7.52559165e-004 -3.88624007e-003 -3.88624007e-003 0. 0. 0. 0. 0.
      -1.30883057e-003 -6.35654666e-004 -3.88624007e-003
      -2.95023317e-004 0. 0. 0. 0. 0. -2.48916263e-006 -8.31836587e-007
      -2.95023317e-004 -2.57353764e-004 0. 0. 0. 0. 0. -6.91689056e-005
      -2.31150934e-005 -2.57353764e-004 -4.63802274e-003 0. 0. 0. 0. 0.
      -2.12600618e-003 -1.76579948e-003 -4.63802274e-003
      -1.25753810e-003 0. 0. 0. 0. 0. -1.16242329e-003 -4.01306665e-004
      -1.25753810e-003 -1.64309327e-004 0. 0. 0. 0. 0. -1.00178739e-004
      -3.34780598e-005 -1.64309327e-004 -3.59079531e-005 0. 0. 0. 0. 0.
      -2.50195972e-005 -8.36113122e-006 -3.59079531e-005
      -1.35286443e-003 0. 0. 0. -1.37019179e-005 0. -1.35286443e-003
      -1.10344694e-003 -1.35286443e-003 -2.06790413e-004 0. 0. 0.
      -1.09572014e-004 0. -3.81938851e-004 -3.45874432e-004
      -2.06790413e-004 0. 0. 0. 0. 0. 0. -2.04839453e-005
      -6.84539236e-006 0. 0. 0. 0. 0. 0. 0. 0. 0. 0. 0. 0. 0. 0.
      -5.69258758e-004 0. -5.69258758e-004 -5.69258758e-004 0. 0. 0. 0.
      0. 0. 0. 0. 0. 0. 0. 0. 0. 0. 0. 0. 0. 0. 0. 0. 0. 0. 0. 0. 0. 0.
      0. 0. 0. 0. 0. 0. 0. 0. 0. 0. 0. 0. 0. 0. 0. 0. 0. 0. 0. 0. 0. 0.
      0. 0. 0. 0. 0. 0. 0. 0. 0. 0. 0. 0. 0. 0. 0. 0. 0. 0. 0. 0. 0. 0.
      0. 0. 0. 0. 0. 0. 0. 0. 0. 0. 0. 0. 0. 0. 0. 0. 0. 0. 0. 0. 0. 0.
      -9.05856905e-006 -2.71066929e-005 0. 0. 0. 0. 0. 0. 0.
      -1.92543012e-004 -5.76162071e-004 0. 0. 0. 0. 0. 0.
      -1.34490861e-003 -1.98520697e-003 -2.09382782e-003 0. 0. 0. 0. 0.
      -1.34490861e-003 -1.11623867e-005 -1.24689570e-004
      -3.73118790e-004 0. 0. 0. 0. 0. -1.11623867e-005 -6.82982965e-004
      -5.59542794e-004 -1.23456784e-003 0. 0. 0. 0. 0. -6.82982965e-004
      -6.69113186e-004 -1.03990710e-003 -1.50139665e-003 0. 0. 0. 0. 0.
      -6.69113186e-004 -4.31155087e-003 -7.01532140e-003
      -7.35076843e-003 0. 0. 0. 0. 0. -4.31155087e-003 -9.47399647e-004
      -5.15293039e-004 -9.85859893e-004 0. 0. 0. 0. 0. -9.47399647e-004
      -1.28631410e-003 -7.39455165e-004 -1.18515920e-003 0. 0. 0. 0. 0.
      -1.28631410e-003 -3.61499144e-003 -2.32474948e-003
      -5.04273642e-003 0. 0. 0. 0. 0. -3.61499144e-003 -1.12612275e-002
      -8.95746611e-003 -1.12957861e-002 0. 0. 0. 0. 0. -1.12612275e-002
      -1.65919005e-003 -9.66451247e-004 -1.48421072e-003 0. 0. 0. 0. 0.
      -1.65919005e-003 -3.16449604e-003 -9.27308865e-004
      -2.33143871e-003 0. 0. 0. 0. 0. -3.16449604e-003 -9.13294498e-003
      -4.54546558e-003 -1.06570534e-002 0. 0. 0. 0. 0. -9.13294498e-003
      -1.93029046e-002 -1.56567115e-002 -1.93418097e-002 0. 0. 0. 0. 0.
      -1.93029046e-002 -3.79003119e-003 -6.96610019e-004
      -2.08452297e-003 0. 0. 0. 0. 0. -3.79003119e-003 -5.36538241e-003
      -8.62735731e-004 -2.58163456e-003 0. 0. 0. 0. 0. -5.36538241e-003
      -1.65628735e-002 -6.14971435e-003 -1.57235842e-002 0. 0. 0. 0. 0.
      -1.65628735e-002 -1.65372305e-002 -7.83760287e-003
      -1.50289368e-002 0. 0. 0. 0. 0. -1.65372305e-002 -6.10836456e-003
      -5.49045042e-004 -1.64295221e-003 0. 0. 0. 0. 0. -6.10836456e-003
      -8.63096211e-003 -5.86250506e-004 -1.56499620e-003 0. 0. 0. 0. 0.
      -8.63096211e-003 -1.76182389e-002 -5.07631758e-003
      -1.25009483e-002 0. 0. 0. 0. 0. -1.76182389e-002 -1.76694654e-002
      -3.52471066e-003 -7.82021694e-003 0. 0. 0. 0. 0. -1.76694654e-002
      -8.98355804e-003 -4.97739587e-004 -1.48942671e-003 0. 0. 0. 0. 0.
      -8.98355804e-003 -1.16243446e-002 -3.89245339e-004
      -1.16477045e-003 0. 0. 0. -2.01299790e-005 -6.72710303e-006
      -1.16243446e-002 -1.79463401e-002 -2.12296867e-003
      -6.35273149e-003 0. 0. 0. 0. 0. -1.79463401e-002 -1.79837272e-002
      -1.32955494e-003 -3.97853507e-003 0. 0. 0. -2.18236135e-004
      -7.29306848e-005 -1.79837272e-002 -1.10562351e-002
      -1.27952866e-004 -3.82883765e-004 0. 0. 0. -1.80726362e-004
      -6.03957305e-005 -1.10562351e-002 -1.21281324e-002
      -4.07625848e-005 -1.21977202e-004 0. 0. 0. -7.52198393e-004
      -2.51372170e-004 -1.21281324e-002 -1.80277694e-002
      -1.40685006e-004 -4.20982629e-004 0. 0. 0. -8.36764404e-004
      -2.79631990e-004 -1.80277694e-002 -1.81233976e-002
      -8.06078970e-005 -2.41208647e-004 0. 0. 0. -2.07070168e-003
      -7.98904570e-004 -1.81233976e-002 -1.05664982e-002
      -2.75611933e-006 -8.24736071e-006 0. 0. 0. -2.00400152e-003
      -7.14486523e-004 -1.05664982e-002 -8.17072205e-003 0. 0. 0. 0. 0.
      -2.77691917e-003 -1.23002823e-003 -8.17072205e-003
      -1.63751263e-002 -2.10590533e-005 -6.30164795e-005 0. 0. 0.
      -8.58723000e-003 -3.06142820e-003 -1.63751263e-002
      -1.51287597e-002 7.07877916e-004 1.14081416e-003 0. 0. 0.
      -1.36805670e-002 -6.41618436e-003 -1.51287597e-002
      -6.00290950e-003 0. 0. 0. 0. 0. -2.11761938e-003 -8.59463820e-004
      -6.00290950e-003 -3.91915999e-003 0. 0. 0. 0. 0. -2.29630107e-003
      -1.19814905e-003 -3.91915999e-003 -1.44296642e-002 2.39071771e-004
      7.15393922e-004 0. 0. 0. -1.41510516e-002 -1.07168695e-002
      -1.44296642e-002 -8.44078790e-003 2.64767930e-003 5.33275073e-003
      0. 0. 0. -1.32460780e-002 -7.94189237e-003 -8.44078790e-003
      -2.59724073e-003 0. 0. 0. 0. 0. -2.60796980e-003 -1.11375283e-003
      -2.59724073e-003 -1.16439222e-003 0. 0. 0. 0. 0. -1.81872002e-003
      -7.80813745e-004 -1.16439222e-003 -1.57730021e-002 1.45586440e-003
      4.12294921e-003 0. -1.67876678e-005 0. -1.68407653e-002
      -1.55284638e-002 -1.57730021e-002 -9.60294390e-004 3.37883743e-004
      8.92883923e-004 0. -2.69070384e-004 0. -6.50100457e-003
      -4.41511162e-003 -9.60294390e-004 -5.25828102e-004 0. 0. 0.
      -3.62527462e-005 0. -1.56985887e-003 -5.74984646e-004
      -5.25828102e-004 -1.42315417e-004 0. 0. 0. -3.40273487e-004 0.
      -4.52222797e-004 -3.89555265e-004 -1.42315417e-004 4.98947920e-003
      7.71553023e-005 2.30878097e-004 0. -9.59332101e-004 0.
      -7.01541500e-003 -7.22369365e-003 4.98947920e-003 -8.96504382e-004
      0. 0. 0. -5.03132702e-004 0. -1.73119374e-003 -1.26147922e-003
      -8.96504382e-004 -3.76327152e-005 0. 0. 0. -3.95251496e-004 0.
      -4.91404324e-004 -2.71525700e-004 -3.76327152e-005 0. 0. 0. 0.
      -3.61728016e-005 0. -1.79179478e-005 -5.98787892e-006 0.
      -1.54184585e-003 0. 0. 0. -1.48352643e-003 0. -2.86229723e-003
      -2.75392714e-003 -1.54184585e-003 0. 0. 0. 0. -4.02219885e-004 0.
      -9.19679078e-005 -3.07341397e-005 0. 0. 0. 0. 0. 0. 0. 0. 0. 0. 0.
      0. 0. 0. 0. 0. 0. 0. 0. 0. 0. 0. 0. 0. 0. 0. 0. 0. 0. 0. 0. 0. 0.
      0. 0. 0. 0. 0. 0. 0. 0. 0. 0. 0. 0. 0. 0. -2.29342346e-004
      -6.86279731e-004 0. -1.08795844e-004 0. 0. 0. 0. 0. 0. 0. 0. 0. 0.
      0. 0. 0. 0. -1.53452787e-003 -1.53452787e-003 0. -1.53452787e-003
      0. 0. 0. 0. 0. -3.26345151e-004 -9.76549112e-004 0.
      -2.30137885e-005 0. 0. 0. 0. -3.30541079e-004 -1.10293250e-003
      -1.48344936e-003 0. -3.12728116e-005 0. 0. 0. -3.30541079e-004 0.
      -7.76964007e-004 -1.02311734e-003 0. -1.09676376e-003 0. 0. 0. 0.
      2.81385775e-003 9.81446821e-004 1.78363596e-004 0. 8.32457736e-004
      0. 0. 0. 2.81385775e-003 -9.61731595e-004 -1.41374895e-003
      -1.94366544e-003 0. -4.69555729e-004 0. 0. 0. -9.61731595e-004
      -2.30224710e-003 -2.87525798e-003 -5.11778891e-003 0.
      -1.25990761e-003 0. 0. 0. -2.30224710e-003 2.26603937e-003
      -1.77475647e-003 -4.96346597e-003 0. -3.34621104e-003 0.
      1.46337741e-004 4.89036283e-005 2.26603937e-003 2.37074634e-003
      -1.52818877e-002 -1.47012118e-002 0. -1.37620503e-002 0.
      2.69036810e-003 1.22064096e-003 2.37074634e-003 -3.22906068e-003
      -2.91461358e-003 -4.58838930e-003 0. -2.79582717e-004 0. 0. 0.
      -3.22906068e-003 -7.12103304e-003 -6.06105058e-003
      -1.30780647e-002 0. -7.30946658e-006 0. 0. 0. -7.12103304e-003
      1.57122093e-003 -7.94655271e-003 -1.55184492e-002 0.
      -5.48717845e-003 0. 3.26985121e-003 3.26985121e-003
      1.57122093e-003 -4.40863473e-003 -1.44176790e-002 -1.61243789e-002
      0. -3.73880938e-003 0. 3.13394540e-003 1.04731217e-003
      -4.40863473e-003 -9.44583118e-003 -6.57730130e-003
      -1.25355860e-002 0. 0. 0. 0. 0. -9.44583118e-003 -1.34215020e-002
      -7.73206446e-003 -1.32708186e-002 0. 0. 0. 0. 0. -1.34215020e-002
      -2.90747662e-003 -9.07437317e-003 -1.23074651e-002 0.
      -4.41983604e-004 0. 0. 0. -2.90747662e-003 -1.14543596e-002
      -6.23071752e-003 -1.31637910e-002 0. 0. 0. 0. 0. -1.14543596e-002
      -1.41926426e-002 -6.71387278e-003 -1.26814721e-002 0. 0. 0. 0. 0.
      -1.41926426e-002 -1.37254735e-002 -4.95964149e-003
      -1.09568937e-002 0. 0. 0. 0. 0. -1.37254735e-002 -1.14455465e-002
      -3.81573662e-003 -1.08202863e-002 0. 0. 0. 0. 0. -1.14455465e-002
      -1.13746943e-002 -2.94384686e-003 -7.53742876e-003 0. 0. 0. 0. 0.
      -1.13746943e-002 -1.37463808e-002 -4.56777029e-003
      -1.03867790e-002 0. 0. 0. 0. 0. -1.37463808e-002 -1.41384397e-002
      -2.36969790e-003 -6.19473960e-003 0. 0. 0. 0. 0. -1.41384397e-002
      -1.23649044e-002 -2.09899363e-003 -6.04613451e-003 0. 0. 0. 0. 0.
      -1.23649044e-002 -7.60598434e-003 -1.07621192e-003
      -3.40029947e-003 0. 0. 0. 0. 0. -7.60598434e-003 -1.39353974e-002
      -1.29827682e-003 -3.88493855e-003 0. 0. 0. 0. 0. -1.39353974e-002
      -1.44954678e-002 -9.39231308e-004 -2.81053619e-003 0. 0. 0.
      -3.18564824e-004 -1.06458770e-004 -1.44954678e-002
      -9.94764734e-003 -4.69936698e-004 -1.20788359e-003 0. 0. 0. 0. 0.
      -9.94764734e-003 -7.46926200e-003 6.63229777e-003 4.34810482e-003
      0. 0. 0. -2.12376581e-005 -7.09725236e-006 -7.46926200e-003
      -1.41203776e-002 -1.71785287e-004 -5.14045416e-004 0. 0. 0.
      -9.53339098e-004 -3.18589213e-004 -1.41203776e-002
      -1.38929943e-002 4.31063308e-005 1.28991800e-004 0. 0. 0.
      -1.80623471e-003 -9.24722757e-004 -1.38929943e-002
      -8.84028804e-003 2.98955408e-003 6.01906935e-003 0. 0. 0.
      -8.95333505e-005 -2.99204730e-005 -8.84028804e-003
      -8.63108598e-003 5.53731201e-003 7.36094033e-003 0. 0. 0.
      -1.52576645e-003 -5.09884383e-004 -8.63108598e-003
      -1.18810507e-002 2.00983239e-004 6.01419073e-004 0. 0. 0.
      -5.77079132e-003 -2.09748349e-003 -1.18810507e-002
      -1.06544755e-002 8.67350143e-004 2.56278366e-003 0. 0. 0.
      -1.04430085e-002 -5.65860607e-003 -1.06544755e-002
      -7.14266440e-003 2.78843963e-003 6.83398545e-003 0. 0. 0.
      -5.53229405e-003 -1.84879580e-003 -7.14266440e-003
      -6.01435406e-003 4.21914831e-003 7.06718583e-003 0. 0. 0.
      -1.01312129e-002 -3.56908585e-003 -6.01435406e-003
      -9.14256740e-003 9.89387627e-004 2.77181040e-003 0. 0. 0.
      -1.09950695e-002 -6.36060117e-003 -9.14256740e-003
      -7.46822543e-003 1.23149995e-003 3.25384643e-003 0. 0. 0.
      -1.09931305e-002 -9.05795861e-003 -7.46822543e-003
      -3.18724662e-003 2.63249548e-003 6.08706474e-003 0. 0. 0.
      -9.89358965e-003 -4.10094345e-003 -3.18724662e-003
      -3.58994235e-003 1.59742043e-003 3.34102660e-003 0.
      7.17060757e-004 0. -1.03876088e-002 -6.04303461e-003
      -3.58994235e-003 -5.14723919e-003 7.43556244e-004 2.03383900e-003
      0. 2.00152717e-004 0. -1.22057693e-002 -6.80195913e-003
      -5.14723919e-003 -1.70258642e-003 1.50637497e-004 4.50764870e-004
      0. 1.09335459e-004 0. -8.98317527e-003 -5.93209406e-003
      -1.70258642e-003 -5.22680348e-004 6.83149847e-004 1.77723158e-003
      0. 3.98716284e-003 0. -9.48900729e-003 -6.89063454e-003
      -5.22680348e-004 -1.71402178e-004 5.20556583e-004 1.55769894e-003
      0. 2.49637431e-003 0. -9.93353315e-003 -1.13215521e-002
      -1.71402178e-004 -1.03559974e-003 1.49410798e-005 4.47093371e-005
      0. 2.03791633e-003 0. -6.24880660e-003 -3.37690697e-003
      -1.03559974e-003 -8.16461339e-004 4.58902787e-006 1.37320685e-005
      0. -6.23505912e-004 0. -2.41527637e-003 -1.71436148e-003
      -8.16461339e-004 9.96957649e-004 1.08762085e-003 3.25456378e-003
      0. 7.35191978e-004 0. -1.69862211e-002 -1.76475737e-002
      9.96957649e-004 -4.24030935e-004 1.39832424e-004 4.18430223e-004
      0. -5.45076514e-003 0. -1.04776062e-002 -5.00537595e-003
      -4.24030935e-004 -2.89015297e-004 0. 0. 0. 1.53997549e-004 0.
      -2.52854149e-003 -1.19277602e-003 -2.89015297e-004 0. 0. 0. 0.
      -4.82927426e-004 0. -3.16992751e-004 -1.05933679e-004 0.
      -2.35748783e-004 0. 0. 0. -1.16737727e-002 0. -3.73044005e-003
      -3.54747451e-003 -2.35748783e-004 0. 0. 0. 0. -1.95288798e-003 0.
      -1.53043983e-003 -7.80158560e-004 0. 0. 0. 0. 0. 0. 0. 0. 0. 0. 0.
      0. 0. 0. 0. 0. 0. 0. 0. 0. 0. 0. 0. -1.64640183e-003 0.
      -1.64640183e-003 -1.47491693e-003 0. 0. 0. 0. 0. 0. 0. 0. 0. 0. 0.
      0. 0. 0. -3.11144977e-005 0. 0. 0. 0. 0. -4.89276717e-004
      -1.39414193e-003 0. -1.39414193e-003 0. 0. 0. 0. 0. 0. 0. 0.
      -2.03786098e-004 0. 0. 0. 0. 0. -3.86996689e-004 -1.15804165e-003
      0. -1.39414193e-003 0. 0. 0. 0. 0. -6.84535888e-004
      -1.16829819e-003 0. -1.30600692e-003 0. 0. 0. 0. 2.52357830e-004
      -6.99533499e-004 -2.56013684e-003 0. -4.02852311e-004 0.
      8.26040123e-005 2.76048140e-005 2.52357830e-004 0.
      -3.36517376e-004 -1.00698846e-003 0. -1.52905320e-003 0.
      -1.01191281e-005 -3.38163522e-006 0. 5.82364228e-005
      -6.86094305e-003 -1.00865718e-002 0. -1.11138960e-002 0.
      1.81589846e-003 9.15968791e-004 5.82364228e-005 9.43127787e-004
      -1.80007913e-003 -4.19091759e-003 0. -3.00198351e-003 0.
      8.96217607e-005 2.99500734e-005 9.43127787e-004 9.28541631e-005
      -5.55392308e-003 -7.38782249e-003 0. -7.69128092e-003 0.
      1.73333124e-003 5.79250394e-004 9.28541631e-005 -4.97033325e-005
      -3.47126927e-003 -4.19437606e-003 0. -7.71623570e-003 0.
      1.47461810e-003 5.04441618e-004 -4.97033325e-005 3.88315530e-003
      -3.19263129e-003 -5.11287665e-003 0. -8.77703354e-003 0.
      4.05507715e-004 1.35512804e-004 3.88315530e-003 -1.10110392e-004
      -6.86963834e-003 -8.70474242e-003 0. -7.99027365e-003 0.
      2.09913426e-003 1.49220496e-003 -1.10110392e-004 -1.08201336e-003
      -8.52108561e-003 -1.38798365e-002 0. -6.38825493e-003 0.
      2.94932118e-003 1.34131114e-003 -1.08201336e-003 4.33042413e-003
      -2.18600058e-003 -4.27998463e-003 0. -8.41137301e-003 0.
      2.96765531e-004 3.51518647e-005 4.33042413e-003 2.86562112e-003
      -4.46745893e-003 -9.42972675e-003 0. -9.04296804e-003 0.
      1.45802891e-003 -2.55697349e-004 2.86562112e-003 -2.38079508e-003
      -6.95433468e-003 -1.46055650e-002 0. -2.73318007e-003 0.
      1.62308372e-003 5.42407739e-004 -2.38079508e-003 -2.58924509e-003
      -4.45856806e-003 -1.09554417e-002 0. -3.54933763e-005 0.
      1.84782967e-003 6.17513841e-004 -2.58924509e-003 2.43231794e-003
      -5.52957412e-003 -1.04879523e-002 0. -4.12540091e-003 0.
      7.97973014e-004 -1.74413581e-004 2.43231794e-003 9.87363234e-003
      -2.10136664e-003 -3.13087925e-003 0. -3.32768075e-004 0.
      5.07294433e-003 2.49879621e-003 9.87363234e-003 -7.27640558e-003
      -4.68235649e-003 -1.08682923e-002 0. 0. 0. 9.28729540e-004
      3.10365896e-004 -7.27640558e-003 -8.76983348e-003 -4.45853220e-003
      -1.19927498e-002 0. 0. 0. 5.11391903e-004 1.70898624e-004
      -8.76983348e-003 6.52474724e-003 -3.78606864e-003 -2.41735205e-003
      0. 0. 0. 4.34599910e-003 2.77200178e-003 6.52474724e-003
      7.40596140e-003 4.07523802e-003 -1.92085368e-004 0. 0. 0.
      5.03455987e-003 1.85411819e-003 7.40596140e-003 -1.06725413e-002
      -3.60875763e-003 -9.56857204e-003 0. 0. 0. 7.18329218e-004
      2.40053647e-004 -1.06725413e-002 -7.72885187e-003 -1.37704960e-003
      -2.42481730e-003 0. 0. 0. 1.09056760e-004 3.64449515e-005
      -7.72885187e-003 7.62624852e-003 2.01598136e-003 7.80337199e-004
      0. 0. 0. 6.27832999e-003 2.14082911e-003 7.62624852e-003
      8.16908851e-003 3.57325003e-003 1.92487973e-003 0. 0. 0.
      2.41799001e-003 8.08051904e-004 8.16908851e-003 -9.70585924e-003
      -5.94654412e-004 -1.12979126e-003 0. 0. 0. 8.42319878e-006
      2.81489224e-006 -9.70585924e-003 -8.40913784e-003 1.26040448e-003
      4.89155427e-005 0. 0. 0. 2.27871409e-004 7.61508272e-005
      -8.40913784e-003 8.41356814e-003 2.20619887e-003 3.33143561e-003
      0. 0. 0. 3.40451108e-004 1.13773080e-004 8.41356814e-003
      8.61836225e-003 1.99581869e-003 4.05296311e-003 0. 0. 0.
      3.67985410e-003 1.22974569e-003 8.61836225e-003 -9.89322364e-003
      3.79945058e-003 4.74437932e-003 0. 0. 0. 2.31542726e-004
      7.73777065e-005 -9.89322364e-003 -9.80590377e-003 3.71213397e-003
      6.26820326e-003 0. 0. 0. -2.13741674e-003 -7.14287162e-004
      -9.80590377e-003 7.94681534e-003 2.15719058e-003 6.25001825e-003
      0. 0. 0. 4.07190900e-003 2.07912922e-003 7.94681534e-003
      5.81593020e-003 2.27445061e-003 4.81369672e-003 0. 0. 0.
      2.02133763e-003 6.75497984e-004 5.81593020e-003 -7.72846397e-003
      2.39272020e-003 5.70121268e-003 0. 0. 0. -7.42589543e-003
      -2.79878336e-003 -7.72846397e-003 -8.22129846e-003 2.24076235e-003
      5.65379485e-003 0. 0. 0. -1.34882089e-002 -7.36336038e-003
      -8.22129846e-003 9.88502428e-003 1.70988915e-003 4.56577586e-003
      0. 0. 0. -3.19703179e-003 -1.06839160e-003 9.88502428e-003
      8.58946610e-003 2.24888325e-003 5.91951888e-003 0. 0. 0.
      -8.64701811e-003 -4.43644868e-003 8.58946610e-003 -5.59269311e-003
      1.33460318e-003 3.35372891e-003 0. -4.44131234e-004 0.
      -1.44257853e-002 -6.75588381e-003 -5.59269311e-003 1.81414641e-003
      1.08296995e-003 2.99719279e-003 0. 8.20679590e-004 0.
      -1.12652257e-002 -6.61545061e-003 1.81414641e-003 1.07070366e-002
      2.67227413e-003 6.57352898e-003 0. -2.45269318e-003 0.
      -1.05104791e-002 -8.03756993e-003 1.07070366e-002 1.42582078e-002
      4.64100903e-003 7.44493119e-003 0. -5.43569587e-003 0.
      -9.61987861e-003 -1.07205231e-002 1.42582078e-002 2.32246937e-003
      1.51177112e-003 4.52378346e-003 0. 1.95223396e-003 0.
      -1.22824730e-002 -5.53482259e-003 2.32246937e-003 1.13605557e-003
      2.09810166e-003 4.74880217e-003 0. -4.25461959e-003 0.
      -1.16247898e-002 -1.17272558e-002 1.13605557e-003 1.41974567e-002
      4.29054536e-003 7.77324243e-003 0. -5.11508109e-003 0.
      -7.62513699e-003 -7.83846900e-003 1.41974567e-002 1.21154385e-002
      2.86510633e-003 6.23988593e-003 0. -6.94126496e-003 0.
      -5.58222039e-003 -3.92306130e-003 1.21154385e-002 2.39686924e-003
      2.68084207e-003 4.30438062e-003 0. -4.15164838e-003 0.
      -1.14167482e-002 -7.66160991e-003 2.39686924e-003 2.68957345e-004
      2.85318296e-004 8.53777921e-004 0. -8.39529000e-003 0.
      -8.31299555e-003 -3.30005051e-003 2.68957345e-004 1.35308169e-002
      2.07772595e-003 4.48781857e-003 0. -4.16575000e-003 0.
      -6.27801148e-003 -1.74402725e-003 1.35308169e-002 2.12863646e-003
      1.38237679e-004 4.13658243e-004 0. -1.12014189e-002 0.
      -6.13800157e-003 -3.51026165e-003 2.12863646e-003 -7.13185545e-006
      0. 0. 0. -1.07412608e-002 0. -5.35084680e-003 -2.03029090e-003
      -7.13185545e-006 0. 0. 0. 0. -2.29606126e-003 0. -1.22047111e-003
      -6.32414711e-004 0. 0. 2.92862824e-004 8.76353821e-004 0.
      -1.27292657e-002 0. -9.97422170e-003 -7.71202706e-003 0. 0.
      -1.50965261e-005 -4.51743872e-005 0. -2.46677524e-003 0.
      -1.03169167e-003 -5.69096475e-004 0. 0. 0. 0. 0. -1.36037893e-003
      0. -1.08474155e-003 -3.62502527e-004 0. 0. 0. 0. 0. 0. 0. 0. 0. 0.
      0. 0. 0. 0. -1.36037893e-003 0. -1.36037893e-003 -8.62740621e-004
      0. 0. 0. 0. 0. -1.59931515e-005 0. 0. 0. 0. 0. 0. 0. 0.
      -2.32273465e-004 0. 0. 0. 0. 0. -5.39991233e-005 -1.61585966e-004
      0. -1.92775053e-003 0. 0. 0. 0. 0. 0. 0. 0. -2.71076540e-004 0. 0.
      0. 0. 0. 0. 0. 0. -1.92775053e-003 0. 0. 0. 0. 0. -5.07391305e-005
      -1.51830813e-004 0. -1.71125960e-003 0. -2.55539198e-005
      -8.53967049e-006 0. 6.10061070e-005 -2.73534656e-003
      -7.81103969e-003 0. -4.61250497e-003 0. -8.54336075e-004
      1.46785157e-003 6.10061070e-005 0. -5.54356047e-005
      -1.65884470e-004 0. -1.96961290e-003 0. -8.74079251e-006
      -2.92101936e-006 0. -1.60034630e-004 -3.28706321e-003
      -7.57311843e-003 0. -3.75180994e-003 0. -6.92209648e-003
      -2.88808206e-003 -1.60034630e-004 1.67346690e-004 -2.43120128e-003
      -5.98101551e-003 0. -7.09263841e-003 0. 1.37413343e-004
      7.22418015e-004 1.67346690e-004 1.70653744e-003 -1.25954649e-003
      -4.69709374e-003 0. -9.89027135e-003 0. 3.92292393e-003
      2.31476431e-003 1.70653744e-003 2.18878689e-004 -1.40924682e-003
      -3.40626016e-003 0. -9.66098160e-003 0. -3.05582792e-003
      -1.61170808e-003 2.18878689e-004 6.53579878e-003 5.85035793e-003
      4.89008194e-003 0. -7.49882311e-003 0. -2.27931142e-003
      1.64725760e-003 6.53579878e-003 1.50240574e-003 -3.19146947e-003
      -5.55069884e-003 0. -7.97110610e-003 0. -4.87255777e-004
      -5.76644030e-004 1.50240574e-003 1.20091555e-003 -2.92241457e-003
      -3.11921630e-003 0. -1.12872021e-002 0. -2.43164832e-003
      -2.97316536e-003 1.20091555e-003 8.26954655e-003 2.02914560e-003
      5.40670706e-003 0. -6.83419779e-003 0. -3.10318451e-003
      5.53462422e-004 8.26954655e-003 1.20714325e-002 5.62036084e-003
      3.35177570e-003 0. -9.33181029e-003 0. -3.92491184e-003
      -2.37080758e-003 1.20714325e-002 1.77791982e-003 -5.48607390e-003
      -5.15869074e-003 0. -8.38354509e-003 0. -1.42017554e-003
      -1.43383397e-003 1.77791982e-003 6.48259511e-003 -3.35030374e-003
      -3.22007388e-003 0. -1.78853620e-003 0. 1.59249734e-003
      1.11587311e-003 6.48259511e-003 1.03172222e-002 2.46782065e-003
      -8.12196755e-004 0. -1.01667987e-002 0. -5.66122029e-003
      -3.19561013e-003 1.03172222e-002 1.07877748e-002 3.13157565e-003
      3.14174034e-003 0. -3.62941623e-003 0. -1.89518009e-003
      -1.94360793e-003 1.07877748e-002 6.77602971e-003 -7.27815880e-003
      -7.17345951e-003 0. 0. 0. 2.89046182e-003 1.53815339e-003
      6.77602971e-003 8.71216599e-003 2.28767586e-003 -1.23297924e-003
      0. 0. 0. 3.66740627e-003 1.54402119e-003 8.71216599e-003
      4.29490954e-003 2.00800062e-003 3.85910412e-003 0. 0. 0.
      -7.71294814e-003 -6.95470674e-003 4.29490954e-003 9.15307924e-003
      1.75328983e-003 4.90379473e-003 0. 0. 0. 7.01245037e-004
      2.34342311e-004 9.15307924e-003 6.65351190e-003 -3.76643176e-004
      -1.56360609e-003 0. 0. 0. 3.59637267e-003 1.20184757e-003
      6.65351190e-003 8.58785957e-003 2.40498921e-003 4.94044507e-003 0.
      0. 0. 1.73181470e-003 5.78743580e-004 8.58785957e-003
      8.27156194e-003 1.57713064e-003 4.61340463e-003 0. 0. 0.
      -1.42269535e-003 -4.75442124e-004 8.27156194e-003 1.39373755e-002
      3.85586754e-003 5.54887205e-003 0. 0. 0. 6.86975021e-004
      2.29575584e-004 1.39373755e-002 1.20437238e-002 1.07814115e-003
      2.79172882e-003 0. 0. 0. 1.97237459e-004 6.59134603e-005
      1.20437238e-002 1.28177386e-002 1.30127661e-003 3.69509356e-003 0.
      0. 0. 2.78023863e-003 9.29109170e-004 1.28177386e-002
      1.46569777e-002 3.52757424e-003 6.32826192e-003 0. 0. 0.
      2.62052112e-004 8.75732585e-005 1.46569777e-002 1.49553847e-002
      4.80269315e-003 6.55044662e-003 0. 0. 0. 1.64274802e-003
      5.48977638e-004 1.49553847e-002 1.30290985e-002 1.89168181e-003
      5.43187559e-003 0. 0. 0. 3.55396536e-003 1.37073360e-003
      1.30290985e-002 1.44068487e-002 3.11645330e-003 6.82075741e-003 0.
      0. 0. 2.39869277e-003 8.01603019e-004 1.44068487e-002
      1.17551237e-002 3.61569971e-003 5.86856715e-003 0. 0. 0.
      1.37985044e-003 4.61121963e-004 1.17551237e-002 8.03560391e-003
      5.79118729e-004 1.07199734e-003 0. 0. 0. 5.09169826e-004
      1.70155734e-004 8.03560391e-003 1.40138259e-002 3.14768916e-003
      6.36130478e-003 0. 0. 0. -4.52044886e-004 -1.51065280e-004
      1.40138259e-002 1.14457868e-003 2.94255791e-003 6.09239656e-003 0.
      0. 0. -1.53265744e-002 -1.29351253e-002 1.14457868e-003
      9.48756840e-003 1.03233883e-003 2.17893859e-003 0. 0. 0.
      1.16485235e-005 3.89274146e-006 9.48756840e-003 7.34255975e-003
      -2.20703357e-003 3.29378490e-005 0. 0. 0. -1.78550821e-004
      -5.96685459e-005 7.34255975e-003 1.48091558e-002 3.83005012e-003
      7.12377066e-003 0. -3.90758039e-003 0. -7.54073216e-003
      -3.22736334e-003 1.48091558e-002 1.36631820e-002 3.40457191e-003
      5.02811745e-003 0. -1.47332223e-002 0. -1.11249536e-002
      -1.00500081e-002 1.36631820e-002 7.40236044e-003 -1.28345331e-003
      -8.82011605e-004 0. -4.17105062e-003 0. -4.58094903e-004
      -1.53086919e-004 7.40236044e-003 5.95559925e-003 -4.25981265e-003
      -3.63667449e-003 0. -1.15885418e-002 0. -5.36213629e-003
      -3.01157706e-003 5.95559925e-003 1.38843507e-002 5.89792524e-003
      5.44557162e-003 0. -8.76217987e-003 0. -8.81117210e-003
      -6.01956015e-003 1.38843507e-002 1.12524098e-002 2.55300477e-003
      6.36532158e-003 0. -9.90653317e-003 0. -4.59225615e-003
      -2.14367453e-003 1.12524098e-002 5.99371037e-003 -1.82899483e-003
      -2.70893821e-003 0. -1.56490896e-002 0. -3.23777786e-003
      -3.17712291e-003 5.99371037e-003 7.37063447e-003 9.56289659e-005
      -8.00213602e-004 0. -1.36156799e-002 0. 8.38356791e-005
      -3.63327214e-004 7.37063447e-003 1.03209596e-002 4.67086677e-003
      5.43992408e-003 0. -9.31392796e-003 0. -1.40294316e-003
      -3.42538115e-004 1.03209596e-002 1.03385432e-003 1.38116404e-004
      5.12016821e-004 0. -1.30267171e-002 0. -3.96901462e-003
      -2.52696569e-003 1.03385432e-003 5.85103408e-003 9.51463415e-004
      6.09050796e-004 0. -1.07485792e-002 0. 4.01254091e-003
      2.54769670e-003 5.85103408e-003 1.54159137e-003 -8.16190266e-004
      -1.79092470e-003 0. -9.95204598e-003 0. -9.39255755e-004
      8.43404632e-005 1.54159137e-003 3.47255409e-004 2.45989388e-004
      1.02635089e-003 0. -1.33987609e-002 0. -4.23706276e-003
      -1.41595537e-003 3.47255409e-004 0. -5.76181083e-005
      -1.72414686e-004 0. -2.57095718e-003 0. -1.15627924e-003
      -5.38063527e-004 0. 4.42153949e-004 -4.31703025e-004
      -8.43598275e-004 0. -1.05494885e-002 0. -7.67855847e-004
      8.76289618e-004 4.42153949e-004 0. -2.22688337e-004
      -6.66365901e-004 0. -2.60508689e-003 0. -1.15627924e-003
      -4.23372869e-004 0. 0. 0. 0. 0. -1.27527432e-003 0.
      -1.27527432e-003 -4.59945441e-004 0. 0. 0. 0. 0. -9.40141908e-005
      0. -2.55911837e-005 -8.55214512e-006 0. 0. -1.63022225e-004
      -4.87822719e-004 0. -1.27527432e-003 0. -1.27527432e-003
      -5.23595605e-004 0. 0. -1.08681488e-005 -3.25215187e-005 0.
      -5.78142237e-004 0. -7.55887086e-005 -2.52604841e-005 0. 0. 0. 0.
      0. -2.34346749e-004 0. 0. 0. 0. 0. 0. 0. 0. -1.64684129e-003 0.
      -3.51259310e-004 -1.17384698e-004 0. 0. 0. 0. 0. -1.23753591e-004
      0. 0. 0. 0. 0. 0. 0. 0. -1.64684129e-003 0. -1.32953678e-003
      -4.44307836e-004 0. 0. -4.37809867e-005 -1.31009409e-004 0.
      -1.75632478e-003 0. -2.77226820e-004 -9.26443390e-005 0.
      5.11993282e-003 -1.77480152e-003 -5.24405623e-003 0.
      -6.39739772e-003 0. -1.24159008e-002 -5.62637346e-003
      5.11993282e-003 0. -2.93037392e-005 -8.76879567e-005 0.
      -2.14676792e-003 0. -1.25661422e-003 -4.19938413e-004 0.
      -2.13613050e-004 -6.47269597e-004 -1.23014883e-003 0.
      -8.58404953e-003 0. -6.10221177e-003 -2.69557256e-003
      -2.13613050e-004 5.57791209e-004 -1.01568166e-003 -2.66021327e-003
      0. -9.70109086e-003 0. -3.74040008e-003 -1.87192752e-003
      5.57791209e-004 1.05441520e-002 1.11361104e-003 2.05558306e-003 0.
      -9.11546347e-004 0. -7.07462750e-005 3.41985864e-003
      1.05441520e-002 -4.13715279e-005 -1.02234255e-004 -8.11258942e-005
      0. -7.72387953e-003 0. -6.93896646e-003 -3.83243267e-003
      -4.13715279e-005 1.17274653e-003 1.81679346e-003 2.68209493e-003
      0. -2.70860945e-003 0. -1.16959913e-002 -6.79243775e-003
      1.17274653e-003 9.45243798e-003 2.10181996e-003 4.15873248e-003 0.
      -4.59684944e-003 0. -3.03535932e-003 -1.63845811e-003
      9.45243798e-003 1.00158108e-002 4.12557414e-003 4.85971337e-003 0.
      -6.68133283e-003 0. -3.27216322e-003 -3.48540442e-003
      1.00158108e-002 -1.15978241e-003 1.17625156e-003 3.07665882e-003
      0. -2.70264968e-003 0. -8.38016067e-003 -6.61285175e-003
      -1.15978241e-003 -1.33957050e-003 1.07033306e-003 3.64565477e-003
      0. 4.68915183e-004 0. -9.83897038e-003 -7.82715157e-003
      -1.33957050e-003 8.78997426e-003 3.26234847e-003 5.10461954e-003
      0. -5.76836942e-003 0. -7.70759070e-003 -4.71173692e-003
      8.78997426e-003 3.17224069e-003 2.01402209e-003 5.66923246e-003 0.
      -3.00185569e-003 0. -3.48219136e-003 -5.02538541e-003
      3.17224069e-003 -1.70985155e-003 1.75633514e-003 4.98886267e-003
      0. -8.00969021e-004 0. -9.39268805e-003 -6.17307005e-003
      -1.70985155e-003 5.15415391e-004 5.88862272e-003 6.40791981e-003
      0. -1.94429909e-003 0. -8.26334860e-003 -4.95377323e-003
      5.15415391e-004 4.46344540e-003 1.66002952e-003 4.96742455e-003 0.
      -8.68522911e-004 0. -3.60708078e-003 -2.99602654e-003
      4.46344540e-003 7.85937998e-003 2.95444648e-003 6.47241995e-003 0.
      0. 0. 2.18944449e-004 -9.27517831e-004 7.85937998e-003
      -2.08640634e-003 4.68501728e-003 6.33990718e-003 0.
      -1.73691334e-003 0. -6.60838746e-003 -4.35435213e-003
      -2.08640634e-003 -2.74802488e-003 4.31309175e-003 5.04074711e-003
      0. 0. 0. -3.47824744e-003 -2.87668314e-003 -2.74802488e-003
      9.52618569e-003 3.33686685e-003 5.92239387e-003 0. 0. 0.
      -8.30774836e-004 -2.77633197e-004 9.52618569e-003 9.14501864e-003
      4.40841448e-003 5.76467067e-003 0. 0. 0. -5.47482457e-004
      -1.82959877e-004 9.14501864e-003 -4.92172595e-003 2.59992178e-003
      4.98636439e-003 0. 0. 0. -2.00823322e-003 -1.18607841e-003
      -4.92172595e-003 -5.63496398e-003 -7.52272026e-005
      -9.13517317e-004 0. 0. 0. -1.99418748e-003 -8.24370363e-004
      -5.63496398e-003 1.06141884e-002 5.68300998e-003 6.69044675e-003
      0. 0. 0. -2.02553623e-004 -6.76904237e-005 1.06141884e-002
      9.80720017e-003 3.11988126e-003 4.97358991e-003 0. 0. 0.
      3.10601550e-003 1.07991730e-003 9.80720017e-003 -7.35177845e-003
      -1.01605814e-003 -1.77379721e-003 0. 0. 0. -2.92592472e-003
      -9.77795338e-004 -7.35177845e-003 -8.16270709e-003
      -3.58281005e-003 -5.65684168e-003 0. 0. 0. -1.94016006e-003
      -6.48370595e-004 -8.16270709e-003 9.60143190e-003 6.06485270e-003
      5.40690916e-003 0. 0. 0. 2.99318112e-003 1.00026850e-003
      9.60143190e-003 6.78738067e-003 1.68583135e-003 4.46740584e-003 0.
      0. 0. 1.14117598e-003 3.81360995e-004 6.78738067e-003
      -8.33060220e-003 -2.78987456e-003 -5.71413944e-003 0. 0. 0.
      -1.09126995e-004 -3.64702173e-005 -8.33060220e-003
      -8.87667108e-003 -2.14841566e-003 -4.20062337e-003 0. 0. 0.
      8.87581380e-004 2.96614104e-004 -8.87667108e-003 1.13938851e-002
      3.36944149e-003 6.77231047e-003 0. 0. 0. 0. 0. 1.13938851e-002
      1.29812222e-003 -2.16055661e-003 -3.57511872e-003 0. 0. 0. 0. 0.
      1.29812222e-003 -8.68804660e-003 -1.83531293e-003 -5.37482696e-003
      0. 0. 0. 0. 0. -8.68804660e-003 -8.44263192e-003 -4.03206283e-003
      -1.06412778e-002 0. 0. 0. 0. 0. -8.44263192e-003 4.37209092e-004
      -3.29700671e-003 -5.05092088e-003 0. -3.10064433e-003 0.
      9.79637960e-004 3.27377813e-004 4.37209092e-004 2.10547121e-003
      -4.76157246e-003 -8.67194496e-003 0. -5.85166411e-003 0.
      1.40253885e-003 4.68703831e-004 2.10547121e-003 -6.40103687e-003
      -3.37456143e-003 -8.81842524e-003 0. -7.44436285e-004 0.
      1.25953450e-003 4.20914323e-004 -6.40103687e-003 -5.50790038e-003
      -7.24322535e-003 -1.31710535e-002 0. -2.73817522e-003 0.
      3.10982205e-003 1.03924796e-003 -5.50790038e-003 4.12471686e-003
      -3.55254603e-003 -5.87543240e-003 0. -1.11344429e-002 0.
      -1.69373211e-003 -5.66015602e-004 4.12471686e-003 6.11148030e-003
      -1.67944178e-003 -4.24776739e-003 0. -9.73496214e-003 0.
      -1.92354689e-003 -6.42815314e-004 6.11148030e-003 -2.04313174e-003
      -8.15350469e-003 -1.27216317e-002 0. -5.14926994e-003 0.
      2.46530795e-003 8.23862676e-004 -2.04313174e-003 1.16030721e-003
      -8.14712886e-003 -1.09174550e-002 0. -8.58345255e-003 0.
      5.23014111e-004 1.74782093e-004 1.16030721e-003 6.15283055e-003
      1.73072796e-003 4.06743966e-005 0. -8.41286872e-003 0.
      1.17900479e-003 3.94004222e-004 6.15283055e-003 9.95460199e-004
      -9.94516187e-004 -8.42511712e-004 0. -9.88242216e-003 0.
      -7.08310748e-004 -2.36705338e-004 9.95460199e-004 2.76527531e-003
      -5.42407669e-003 -9.33136139e-003 0. -9.87700932e-003 0.
      -5.73218058e-005 -1.91559484e-005 2.76527531e-003 3.35317862e-004
      -3.77051299e-003 -9.15879384e-003 0. -8.49897694e-003 0.
      -2.89773248e-004 -9.68373934e-005 3.35317862e-004 4.37297422e-005
      -2.02983152e-003 -2.97814771e-003 0. -1.37258368e-002 0.
      3.55505268e-004 1.18804142e-004 4.37297422e-005 0.
      -5.27771714e-004 -1.37918897e-003 0. -2.42707157e-003 0.
      -2.20842048e-004 -7.38017334e-005 0. 1.52538167e-004
      -3.11095477e-003 -9.02199186e-003 0. -1.04392720e-002 0.
      -2.31255821e-004 -7.72818166e-005 1.52538167e-004 0.
      -9.62903432e-004 -1.14583480e-003 0. -1.82363193e-003 0. 0. 0. 0.
      0. -5.83984307e-004 -1.25429174e-003 0. -1.25429174e-003 0.
      -3.83894105e-004 -1.28291009e-004 0. 0. -2.52981517e-005
      -7.57014350e-005 0. -5.30166202e-004 0. -2.55929426e-005
      -8.55273356e-006 0. 0. -7.14736816e-004 -1.25429174e-003 0.
      -1.25429174e-003 0. 0. 0. 0. 0. -8.65330821e-006 -2.58938981e-005
      0. -9.91864363e-005 0. 0. 0. 0. 0. 0. 0. 0. -2.50674184e-005 0. 0.
      0. 0. 0. 0. 0. 0. -1.30465790e-003 0. -1.30465790e-003
      -7.36339425e-004 0. 0. 0. 0. 0. 0. 0. 0. 0. 0. 0. 0. 0. 0.
      -1.30465790e-003 0. -1.30465790e-003 -5.04704833e-004 0. 0.
      -7.74507953e-006 -2.31762315e-005 0. -1.82243390e-003 0.
      -1.14258309e-003 -4.88820428e-004 0. -3.40857296e-005
      -1.84838573e-004 -4.43559024e-004 0. -9.24867764e-003 0.
      -8.59592855e-003 -7.34045869e-003 -3.40857296e-005 0.
      -2.64922710e-006 -7.92749779e-006 0. -1.36603857e-003 0.
      -1.09465269e-003 -6.83179649e-004 0. -4.45434171e-006
      -3.97384028e-005 -1.18912474e-004 0. -3.39465891e-003 0.
      -2.93193152e-003 -1.49339251e-003 -4.45434171e-006 1.43402751e-004
      -6.52224189e-005 -6.33335003e-005 0. -7.19088549e-003 0.
      -6.73706224e-003 -3.48713505e-003 1.43402751e-004 -3.02906171e-003
      5.36867476e-004 1.60651351e-003 0. -4.14456998e-004 0.
      -1.24430247e-002 -1.39985112e-002 -3.02906171e-003
      -3.10287869e-004 -2.29724374e-005 -6.87422944e-005 0.
      -2.02688435e-003 0. -3.74382408e-003 -1.81287213e-003
      -3.10287869e-004 -3.80151719e-003 -2.67036725e-004
      -7.93487707e-004 0. 1.13763315e-004 0. -5.73717570e-003
      -3.75033170e-003 -3.80151719e-003 -8.87341972e-004
      -3.44999971e-005 -1.03236038e-004 0. -9.79547040e-004 0.
      -7.92741962e-003 -5.20191714e-003 -8.87341972e-004
      -8.87185251e-006 8.69247888e-004 2.26198370e-003 0.
      2.95948144e-003 0. -7.41196470e-003 -5.65617019e-003
      -8.87185251e-006 -4.58382722e-003 -2.61753710e-004
      -2.04425611e-004 0. -2.61697313e-003 0. -5.80860022e-003
      -4.87221731e-003 -4.58382722e-003 -4.81273746e-003 1.00837811e-003
      2.05502333e-003 0. -8.23038863e-004 0. -9.87150613e-003
      -7.57973921e-003 -4.81273746e-003 -1.58697797e-003 3.42254620e-003
      6.01468142e-003 0. -2.34368068e-004 0. -8.44190177e-003
      -5.23056369e-003 -1.58697797e-003 1.45325495e-003 5.78928413e-003
      6.07028557e-003 0. -1.36041921e-003 0. -9.29346122e-003
      -4.53466550e-003 1.45325495e-003 -7.66989309e-003 2.08249735e-003
      4.23520710e-003 0. -4.10016393e-004 0. -1.13871656e-002
      -7.09651550e-003 -7.66989309e-003 -1.21211438e-002 1.59717689e-003
      4.00010310e-003 0. 0. 0. -9.82597563e-003 -5.85731817e-003
      -1.21211438e-002 4.89468861e-004 7.28756981e-003 7.75397569e-003
      0. -3.24455439e-004 0. -6.10808888e-003 -2.28943350e-003
      4.89468861e-004 -2.07824865e-003 3.35500832e-003 7.61426520e-003
      0. 0. 0. -1.48484844e-003 -2.03096497e-004 -2.07824865e-003
      -1.33526698e-002 6.21774467e-004 1.86057913e-003 0. 0. 0.
      -8.05964880e-003 -5.06571215e-003 -1.33526698e-002
      -1.45778339e-002 -1.34145375e-004 -4.01414291e-004 0. 0. 0.
      -5.18780667e-003 -3.28844879e-003 -1.45778339e-002 4.78738599e-004
      9.25264321e-003 9.39688087e-003 0. 0. 0. 4.51807427e-004
      1.50984502e-004 4.78738599e-004 -8.17548390e-003 -3.46060697e-004
      -1.23057596e-003 0. 0. 0. -4.59930976e-004 -1.53702378e-004
      -8.17548390e-003 -1.45035461e-002 -1.71072999e-004
      -5.11915423e-004 0. 0. 0. -3.37074278e-003 -1.80446671e-003
      -1.45035461e-002 -1.48125580e-002 -3.57262848e-004
      -1.06906414e-003 0. 0. 0. -2.66055367e-003 -8.89110379e-004
      -1.48125580e-002 -7.84114096e-003 -1.21622893e-003
      -3.11457203e-003 0. 0. 0. -1.60477019e-003 -5.36287436e-004
      -7.84114096e-003 -1.56615954e-003 -2.10543047e-003
      -4.85835876e-003 0. 0. 0. -2.81359768e-003 -9.40257276e-004
      -1.56615954e-003 -1.44022517e-002 -7.21204735e-004
      -2.15811492e-003 0. 0. 0. -1.44271285e-003 -4.82129341e-004
      -1.44022517e-002 -1.45599917e-002 -1.89249462e-003
      -4.89448011e-003 0. 0. 0. -1.24167569e-003 -4.14946233e-004
      -1.45599917e-002 -3.16760899e-003 -1.55709917e-003
      -4.44016140e-003 0. 0. 0. -1.18649355e-003 -3.96506308e-004
      -3.16760899e-003 -3.16357985e-003 -9.50366666e-004
      -2.54869880e-003 0. 0. 0. 0. 0. -3.16357985e-003 -1.47722894e-002
      -2.47282535e-003 -6.06115768e-003 0. 0. 0. -2.00151277e-004
      -6.68870489e-005 -1.47722894e-002 -1.52884154e-002
      -3.16172652e-003 -4.98675089e-003 0. 0. 0. 0. 0. -1.52884154e-002
      -4.47661616e-003 -1.19024981e-003 -3.33223469e-003 0. 0. 0. 0. 0.
      -4.47661616e-003 -5.48658241e-003 -2.44233687e-003
      -6.92362851e-003 0. 0. 0. 0. 0. -5.48658241e-003 -1.49571197e-002
      -2.17787712e-003 -4.66015376e-003 0. 0. 0. 0. 0. -1.49571197e-002
      -1.49801299e-002 -3.73721099e-003 -8.39590281e-003 0. 0. 0. 0. 0.
      -1.49801299e-002 -3.90269537e-003 -2.46224366e-003
      -6.45049708e-003 0. 0. 0. 2.11761892e-003 7.07671104e-004
      -3.90269537e-003 -3.47279292e-003 -4.90572164e-003
      -9.91812721e-003 0. 0. 0. 5.13994740e-003 1.71768037e-003
      -3.47279292e-003 -1.42323785e-002 -3.83573980e-003
      -9.26533155e-003 0. 0. 0. 0. 0. -1.42323785e-002 -1.39166666e-002
      -6.75870012e-003 -1.12744682e-002 0. 0. 0. 0. 0. -1.39166666e-002
      -9.52623028e-004 -7.05960300e-003 -1.10560143e-002 0.
      -4.65477147e-004 0. 2.86359619e-003 9.56963573e-004
      -9.52623028e-004 1.73989532e-003 -8.02613422e-003 -9.04594082e-003
      0. -3.72634875e-003 0. 7.86943478e-004 2.62982707e-004
      1.73989532e-003 -1.20091755e-002 -7.43917748e-003 -1.36418873e-002
      0. -3.44753207e-005 0. 0. 0. -1.20091755e-002 -7.99835101e-003
      -8.90598446e-003 -1.13513004e-002 0. -3.52897914e-004 0. 0. 0.
      -7.99835101e-003 1.13805046e-003 -1.04460986e-002 -8.62942357e-003
      0. -1.03897816e-002 0. 0. 0. 1.13805046e-003 1.03572698e-003
      -3.81101039e-003 -6.45323470e-003 0. -6.97419560e-003 0. 0. 0.
      1.03572698e-003 -5.69579192e-003 -7.39115290e-003 -1.31257242e-002
      0. -2.27240333e-003 0. 0. 0. -5.69579192e-003 -2.56006652e-003
      -3.33903753e-003 -5.95394801e-003 0. -3.33528011e-003 0. 0. 0.
      -2.56006652e-003 6.61744853e-004 -6.62510050e-003 -1.11669768e-002
      0. -8.98734666e-003 0. 0. 0. 6.61744853e-004 0. -7.67184771e-004
      -1.01014553e-003 0. -1.29489286e-003 0. 0. 0. 0. -6.88344939e-004
      -2.55405041e-003 -5.66464709e-003 0. -5.83302416e-003 0. 0. 0.
      -6.88344939e-004 0. -4.15356131e-004 -9.92795918e-004 0.
      -2.24108153e-004 0. 0. 0. 0. 0. -1.49064802e-003 -1.49064802e-003
      0. -1.49064802e-003 0. 0. 0. 0. 0. 0. 0. 0. -2.56757321e-005 0. 0.
      0. 0. 0. -2.51989230e-004 -7.54045031e-004 0. -5.49649762e-004 0.
      0. 0. 0. 0. 0. 0. 0. 0. 0. 0. 0. 0. 0. 0. 0. 0. 0. 0. 0. 0. 0. 0.
      0. 0. 0. -1.60256261e-003 0. -1.60256261e-003 -1.56160165e-003 0.
      0. 0. 0. 0. 0. 0. 0. 0. 0. 0. 0. 0. 0. -1.51172266e-004 0. 0. 0.
      0. 0. 0. 0. 0. -1.19828002e-003 0. -1.04082352e-003
      -4.36050643e-004 0. -1.00470803e-004 0. 0. 0. -2.45170668e-003 0.
      -2.45170668e-003 -2.15106341e-003 -1.00470803e-004 0. 0. 0. 0.
      -4.67833044e-004 0. -4.60807205e-004 -1.53993678e-004 0.
      -1.72091575e-004 0. 0. 0. -1.20280799e-003 0. -2.02386919e-003
      -1.24862394e-003 -1.72091575e-004 -6.11297088e-004 0. 0. 0.
      -1.39593787e-003 0. -1.63067901e-003 -1.05831062e-003
      -6.11297088e-004 -9.46028344e-003 -5.45004332e-005
      -1.63087083e-004 0. -5.74890245e-003 0. 4.61785996e-004
      -1.30623300e-003 -9.46028344e-003 -7.95857981e-004 0. 0. 0.
      -9.80551820e-004 0. -1.76401588e-003 -1.20211102e-003
      -7.95857981e-004 -1.71547127e-003 -8.96236452e-005
      -2.68187054e-004 0. -2.76454288e-004 0. -1.57219986e-003
      -9.08071350e-004 -1.71547127e-003 -1.00933062e-003 1.90900028e-004
      4.80192481e-004 0. -1.70744886e-003 0. -4.26326599e-003
      -2.93138367e-003 -1.00933062e-003 -1.64306667e-002 1.56951963e-003
      3.83433141e-003 0. -9.81059275e-004 0. -9.77781229e-003
      -1.07865771e-002 -1.64306667e-002 -2.18249485e-003
      -2.93893798e-004 -8.79438885e-004 0. -8.98061320e-004 0.
      -1.45704998e-003 -8.08146433e-004 -2.18249485e-003
      -4.93444316e-003 -2.51115271e-004 -7.51429761e-004 0.
      -8.98061320e-004 0. -3.56417894e-003 -1.25663390e-003
      -4.93444316e-003 -8.07902310e-003 3.58246872e-003 5.04209101e-003
      0. -4.89320591e-005 0. -1.02538038e-002 -4.82326141e-003
      -8.07902310e-003 -1.46118170e-002 8.11528997e-004 2.42839451e-003
      0. 0. 0. -1.21304197e-002 -9.54984687e-003 -1.46118170e-002
      -5.75668551e-003 -1.88355025e-005 -5.63627837e-005 0.
      -7.06769206e-005 0. -3.57857184e-003 -1.19589583e-003
      -5.75668551e-003 -9.10891965e-003 0. 0. 0. 0. 0. -4.77946410e-003
      -1.79527071e-003 -9.10891965e-003 -1.54976649e-002
      -6.36553023e-006 -1.90480205e-005 0. 0. 0. -9.34285019e-003
      -4.23590932e-003 -1.54976649e-002 -1.60583705e-002
      -2.07277102e-004 -6.20249717e-004 0. 0. 0. -6.22553704e-003
      -4.40615229e-003 -1.60583705e-002 -9.52298287e-003
      -8.18425269e-006 -2.44903113e-005 0. 0. 0. -2.76466017e-003
      -9.23900923e-004 -9.52298287e-003 -1.22466963e-002
      -3.73383577e-004 -1.11730176e-003 0. 0. 0. -8.71665892e-004
      -2.91295437e-004 -1.22466963e-002 -1.60430185e-002
      -2.59593449e-004 -7.76799512e-004 0. 0. 0. -3.82871716e-003
      -1.64842280e-003 -1.60430185e-002 -1.63059309e-002
      -7.72729400e-004 -2.31229211e-003 0. 0. 0. -3.50505463e-003
      -1.26593467e-003 -1.63059309e-002 -1.17873503e-002
      -4.12970519e-004 -1.23576052e-003 0. 0. 0. -5.17455686e-004
      -1.72924614e-004 -1.17873503e-002 -1.42760631e-002
      -6.68475288e-004 -2.00032536e-003 0. 0. 0. -8.07455159e-004
      -2.69837299e-004 -1.42760631e-002 -1.55348247e-002
      -1.19957759e-003 -3.56835756e-003 0. 0. 0. -2.31655198e-003
      -7.74150947e-004 -1.55348247e-002 -1.54751809e-002
      -2.40796246e-003 -5.69173088e-003 0. 0. 0. -2.45970814e-003
      -8.21991358e-004 -1.54751809e-002 -1.31277991e-002
      -9.32124385e-004 -2.70167063e-003 0. 0. 0. -8.66221613e-004
      -2.89476040e-004 -1.31277991e-002 -1.39459027e-002
      -1.26604561e-003 -3.45876487e-003 0. 0. 0. -1.11804926e-003
      -3.73632443e-004 -1.39459027e-002 -1.62426028e-002
      -3.55283241e-003 -7.54593499e-003 0. 0. 0. -4.05869127e-004
      -1.35634327e-004 -1.62426028e-002 -1.62121374e-002
      -3.03072855e-003 -5.68992086e-003 0. 0. 0. 0. 0. -1.62121374e-002
      -1.22832386e-002 -1.04522868e-003 -2.98931310e-003 0. 0. 0.
      -1.84485980e-004 -6.16519756e-005 -1.22832386e-002
      -1.07798977e-002 -6.25352608e-004 -1.24499539e-003 0. 0. 0. 0. 0.
      -1.07798977e-002 -1.65672526e-002 -3.13453865e-003
      -5.30317705e-003 0. 0. 0. 0. 0. -1.65672526e-002 -1.67464316e-002
      -3.83467646e-003 -1.02115171e-002 0. 0. 0. 0. 0. -1.67464316e-002
      -9.43970587e-003 -5.45150717e-004 -1.21580367e-003 0. 0. 0. 0. 0.
      -9.43970587e-003 -9.49708465e-003 -1.02358439e-003
      -2.80723022e-003 0. 0. 0. 0. 0. -9.49708465e-003 -1.68529544e-002
      -6.96194172e-003 -1.22090587e-002 0. 0. 0. 0. 0. -1.68529544e-002
      -1.59373805e-002 -5.55724185e-003 -1.14632631e-002 0. 0. 0. 0. 0.
      -1.59373805e-002 -7.67702190e-003 -8.30874604e-004
      -2.45426921e-003 0. 0. 0. 0. 0. -7.67702190e-003 -6.14954671e-003
      -8.28417018e-004 -2.16281111e-003 0. 0. 0. 0. 0. -6.14954671e-003
      -1.82268769e-002 -1.06076179e-002 -1.32354572e-002 0. 0. 0. 0. 0.
      -1.82268769e-002 -9.34303366e-003 -7.26214144e-003
      -1.26148062e-002 0. 0. 0. 0. 0. -9.34303366e-003 -4.08011442e-003
      -8.87313334e-004 -2.41589802e-003 0. 0. 0. 0. 0. -4.08011442e-003
      -1.62284437e-003 -5.83628775e-004 -1.43755972e-003 0. 0. 0. 0. 0.
      -1.62284437e-003 -1.09155234e-002 -1.48857730e-002
      -1.99772511e-002 0. -1.35321272e-004 0. 0. 0. -1.09155234e-002
      -3.62325460e-003 -2.52240780e-003 -4.90465434e-003 0.
      -5.86392183e-004 0. 0. 0. -3.62325460e-003 -8.59405380e-004
      -3.59703699e-004 -1.06136233e-003 0. 0. 0. 0. 0. -8.59405380e-004
      -1.15829251e-004 -9.05632478e-005 -2.70998746e-004 0. 0. 0. 0. 0.
      -1.15829251e-004 -4.62303590e-003 -5.92549797e-003
      -5.92549797e-003 0. -4.63121943e-003 0. 0. 0. -4.62303590e-003 0.
      -2.98757222e-004 -8.93992081e-004 0. 0. 0. 0. 0. 0.
      -8.73087192e-005 -1.42295730e-005 -4.25801518e-005 0. 0. 0. 0. 0.
      -8.73087192e-005 0. 0. 0. 0. 0. 0. 0. 0. 0. 0. 0. 0. 0. 0. 0. 0.
      0. 0. 0. 0. 0. 0. 0. 0. 0. 0. 0. 0. 0. 0. 0. 0. 0. 0. 0. 0. 0. 0.
      0. 0. 0. 0. 0. 0. 0. 0. 0. 0. 0. 0. 0. 0. 0. 0. 0. 0. 0. 0. 0. 0.
      0. 0. 0. 0. 0. 0. 0. 0. 0. 0. 0. 0. 0. 0. 0. 0. 0. 0. 0. 0. 0. 0.
      0. 0. 0. -3.06357339e-004 0. -2.25734111e-004 -7.54363864e-005 0.
      -1.14179938e-003 0. 0. 0. -1.37951470e-003 0. -1.87766994e-003
      -1.87766994e-003 -1.14179938e-003 0. 0. 0. 0. -5.44921477e-006 0.
      0. 0. 0. -2.83003377e-004 0. 0. 0. -8.17382170e-005 0.
      -8.06737284e-004 -2.69597454e-004 -2.83003377e-004
      -1.21399376e-003 0. 0. 0. -5.43439528e-004 0. -1.41550729e-003
      -8.67427560e-004 -1.21399376e-003 -2.16527842e-003
      -1.80638788e-004 -5.40538051e-004 0. -1.18210271e-004 0.
      -2.16527842e-003 -1.62780646e-003 -2.16527842e-003
      -4.70799016e-004 0. 0. 0. -1.39722697e-005 0. -5.24912786e-004
      -1.75416644e-004 -4.70799016e-004 -8.28844903e-004
      -1.07510983e-004 -3.21712636e-004 0. -3.96001997e-006 0.
      -4.76854679e-004 -1.59356467e-004 -8.28844903e-004
      -1.94488151e-003 -5.55680657e-004 -8.13389022e-004 0.
      -8.13389022e-004 0. -1.28393504e-003 -5.30665275e-004
      -1.94488151e-003 -4.09711199e-003 -3.43619176e-004
      -8.13389022e-004 0. -8.13389022e-004 0. -1.05517358e-003
      -4.74076020e-004 -4.09711199e-003 -7.94623687e-004
      -2.30814592e-004 -6.90682675e-004 0. -1.01611782e-004 0.
      -1.38838572e-004 -4.63974138e-005 -7.94623687e-004
      -2.79264816e-004 -9.76626543e-005 -2.92242767e-004 0.
      -1.19887831e-004 0. -8.91026139e-005 -2.97765346e-005
      -2.79264816e-004 -3.61656677e-003 -1.86287507e-005
      -5.57441126e-005 0. -1.44814650e-004 0. -1.69192557e-003
      -5.65411814e-004 -3.61656677e-003 -8.67346860e-003 0. 0. 0. 0. 0.
      -2.79242964e-003 -1.21711532e-003 -8.67346860e-003
      -2.37592380e-004 0. 0. 0. -2.19857611e-005 0. -5.94426492e-005
      -1.98646921e-005 -2.37592380e-004 -5.50176133e-004 0. 0. 0. 0. 0.
      -1.91017491e-004 -6.38346901e-005 -5.50176133e-004
      -7.36987311e-003 -1.08212489e-005 -3.23811764e-005 0. 0. 0.
      -1.34473341e-003 -4.49386338e-004 -7.36987311e-003
      -7.36987311e-003 -4.28059982e-004 -1.28091371e-003 0. 0. 0.
      -6.20354622e-005 -2.07311641e-005 -7.36987311e-003
      -6.82558166e-004 0. 0. 0. 0. 0. -1.51373853e-004 -5.05864846e-005
      -6.82558166e-004 -8.63254711e-004 0. 0. 0. 0. 0. -1.74428169e-005
      -5.82908342e-006 -8.63254711e-004 -7.25757377e-003
      -7.23125006e-004 -2.07877276e-003 0. 0. 0. 0. 0. -7.25757377e-003
      -7.25757377e-003 -1.35977971e-004 -4.06896404e-004 0. 0. 0. 0. 0.
      -7.25757377e-003 -7.98534486e-004 0. 0. 0. 0. 0. 0. 0.
      -7.98534486e-004 -8.64123751e-004 0. 0. 0. 0. 0. 0. 0.
      -8.64123751e-004 -9.09457169e-003 -4.67674574e-004
      -1.12202438e-003 0. 0. 0. 0. 0. -9.09457169e-003 -3.18020280e-003
      -6.78542303e-004 -2.02614511e-003 0. 0. 0. 0. 0. -3.18020280e-003
      -7.68510334e-004 -9.71206919e-006 -2.90621010e-005 0. 0. 0. 0. 0.
      -7.68510334e-004 -6.09959767e-004 -6.32375668e-005
      -1.89230181e-004 0. 0. 0. 0. 0. -6.09959767e-004 -2.71557248e-003
      -9.05679888e-004 -1.82898203e-003 0. 0. 0. 0. 0. -2.71557248e-003
      -1.68437231e-003 -2.90633092e-004 -3.34751821e-004 0. 0. 0. 0. 0.
      -1.68437231e-003 -3.65307525e-004 -7.60421390e-005
      -2.27546203e-004 0. 0. 0. 0. 0. -3.65307525e-004 -1.91229730e-004
      -2.20013626e-005 -6.58362187e-005 0. 0. 0. 0. 0. -1.91229730e-004
      -1.58872397e-003 -5.74206584e-004 -9.56509437e-004 0. 0. 0. 0. 0.
      -1.58872397e-003 -1.54712319e-003 -4.98999318e-004
      -1.49319042e-003 0. 0. 0. 0. 0. -1.54712319e-003 -1.33538706e-004
      -4.16973808e-006 -1.24773987e-005 0. 0. 0. 0. 0. -1.33538706e-004
      -4.65814264e-005 0. 0. 0. 0. 0. 0. 0. -4.65814264e-005
      -1.64558121e-003 -6.34084339e-004 -1.64558121e-003 0. 0. 0. 0. 0.
      -1.64558121e-003 -1.24082586e-003 -3.85315972e-004
      -1.10270409e-003 0. 0. 0. 0. 0. -1.24082586e-003 -4.09135964e-006
      0. 0. 0. 0. 0. 0. 0. -4.09135964e-006 0. 0. 0. 0. 0. 0. 0. 0. 0.
      -1.13661354e-003 -7.07058702e-004 -1.13661354e-003 0. 0. 0. 0. 0.
      -1.13661354e-003 -1.13661354e-003 -2.55797320e-004
      -7.65440054e-004 0. 0. 0. 0. 0. -1.13661354e-003 0. 0. 0. 0. 0. 0.
      0. 0. 0. 0. 0. 0. 0. 0. 0. 0. 0. 0. -1.66021124e-003
      -4.57519811e-004 -1.36906852e-003 0. 0. 0. 0. 0. -1.66021124e-003
      0. 0. 0. 0. 0. 0. 0. 0. 0. 0. 0. 0. 0. 0. 0. 0. 0. 0. 0. 0. 0. 0.
      0. 0. 0. 0. 0. 0. 0. 0. 0. 0. 0. 0. 0. 0. 0. 0. 0. 0. 0. 0. 0. 0.
      0. 0. 0. 0. 0. 0. 0. 0. 0. 0. 0. 0. 0. 0. 0. 0. 0. 0. 0. 0. 0. 0.
      0. 0. 0. 0. 0. 0. 0. 0. 0. 0. 0. 0. 0. 0. 0. 0. 0. 0. 0. 0. 0. 0.
      0. 0. 0. 0. 0. 0. 0. 0. 0. 0. 0. 0. 0. 0. 0. 0. 0. 0. 0. 0. 0. 0.
      0. 0. 0. 0. 0. 0. 0. 0. 0. 0. 0. 0. 0. 0. 0. 0. 0. 0. 0. 0. 0. 0.
      0. 0. 0. 0. 0. 0. 0. 0. 0. 0. 0. 0. 0. 0. 0. 0. 0. 0. 0. 0. 0. 0.
      0. 0. 0. 0. 0. 0. 0. 0. 0. 0. 0. 0. 0. 0. 0. 0. 0.
      -3.29624221e-004 0. 0. 0. 0. 0. 0. 0. -3.29624221e-004
      -1.91987213e-003 0. 0. 0. 0. 0. 0. 0. -1.91987213e-003 0. 0. 0. 0.
      0. 0. 0. 0. 0. 0. 0. 0. 0. 0. 0. 0. 0. 0. -1.94786431e-003 0. 0.
      0. 0. 0. 0. 0. -1.94786431e-003 0. 0. 0. 0. 0. 0. 0. 0. 0. 0. 0.
      0. 0. 0. 0. 0. 0. 0. 0. 0. 0. 0. 0. 0. 0. 0. 0. 0. 0. 0. 0. 0. 0.
      0. 0. 0. 0. 0. 0. 0. 0. 0. 0. 0. 0. 0. 0. 0. 0. 0. 0. 0. 0. 0. 0.
      0. 0. 0. 0. 0. 0. 0. 0. 0. 0. 0. 0. 0. 0. 0. 0. 0. 0. 0. 0. 0. 0.
      0. 0. 0. 0. 0. 0. 0. 0. 0. 0. 0. 0. 0. 0. 0. 0. 0. 0. 0. 0. 0. 0.
      0. 0. 0. 0. 0. 0. 0. 0. 0. 0. 0. 0. 0. 0. 0. 0. 0. 0. 0. 0. 0. 0.
      0. 0. 0. 0. 0. 0. 0. 0. 0. 0. 0. 0. 0. 0. 0. 0. 0. 0. 0. 0. 0. 0.
      0. 0. 0. 0. 0. 0. 0. 0. 0. 0. 0. 0. 0. 0. 0. 0. 0. 0. 0. 0. 0. 0.
      0. 0. 0. 0. 0. 0. 0. 0. 0. 0. 0. 0. 0. 0. 0. 0. 0. 0. 0. 0. 0. 0.
      0. 0. 0. 0. 0. 0. 0. 0. 0. 0. 0. 0. 0. 0. 0. 0. 0. 0. 0. 0. 0. 0.
      0. 0. 0. 0. 0. 0. 0. 0. 0. 0. 0. 0. 0. 0. 0. 0. 0. 0. 0. 0. 0. 0.
      0. 0. 0. 0. 0. 0. 0. 0. 0. 0. 0. 0. 0. 0. 0. 0. 0. 0. 0. 0. 0. 0.
      0. 0. 0. 0. 0. 0. 0. 0. 0. 0. 0. 0. 0. 0. 0. 0. 0. 0. 0. 0. 0. 0.
      0. 0. 0. 0. 0. 0. 0. 0. 0. 0. 0. 0. 0. 0. 0. 0. 0. 0. 0. 0. 0. 0.
      0. 0. 0. 0. 0. 0. 0. 0. 0. 0. 0. 0. 0. 0. 0. 0. 0. 0. 0. 0. 0. 0.
      0. 0. 0. 0. 0. 0. 0. 0. 0. 0. 0. 0. 0. 0. 0. 0. 0. 0. 0. 0. 0. 0.
      0. 0. 0. 0. 0. 0. 0. 0. 0. 0. 0. 0. 0. 0. 0. 0. 0. 0. 0. 0. 0. 0.
      0. 0. 0. 0. 0. 0. 0. 0. 0. 0. 0. 0. 0. 0. 0. 0. 0. 0. 0. 0. 0. 0.
      0. 0. 0. 0. 0. 0. 0. 0. 0. 0. 0. 0. 0. 0. 0. 0. 0. 0. 0. 0. 0. 0.
      0. 0. 0. 0. 0. 0. 0. 0. 0. 0. 0. 0. 0. 0. 0. 0. 0. 0. 0. 0. 0. 0.
      0. 0. 0. 0. 0. 0. 0. 0. 0. 0. 0. 0. 0. 0. 0. 0. 0. 0. 0. 0. 0. 0.
      0. 0. 0. 0. 0. 0. 0. 0. 0. 0. 0. 0. 0. 0. 0. 0. 0. 0. 0. 0. 0. 0.
      0. 0. 0. 0. 0. 0. 0. 0. 0. 0. 0. 0. 0. 0. 0. 0. 0. 0. 0. 0. 0. 0.
      0. 0. 0. 0. 0. 0. 0. 0. 0. 0. 0. 0. 0. 0. 0. 0. 0. 0. 0. 0. 0. 0.
      0. 0. 0. 0. 0. 0. 0. 0. 0. 0. 0. 0. 0. 0. 0. 0. 0. 0. 0. 0. 0. 0.
      0. 0. 0. 0. 0. 0. 0. 0. 0. 0. 0. 0. 0. 0. 0. 0. 0. 0. 0. 0. 0. 0.
      0. 0. 0. 0. 0. 0. 0. 0. 0. 0. 0. 0. 0. 0. 0. 0. 0. 0. 0. 0. 0. 0.
      0. 0. 0. 0. 0. 0. 0. 0. 0. 0. 0. 0. 0. 0. 0. 0. 0. 0. 0. 0. 0. 0.
      0. 0. 0. 0. 0. 0. 0. 0. 0. 0. 0. 0. 0. 0. 0. 0. 0. 0. 0. 0. 0. 0.
      0. 0. 0. 0. 0. 0. 0. 0. 0. 0. 0. 0. 0. 0. 0. 0. 0. 0. 0. 0. 0. 0.
      0. 0. 0. 0. 0. 0. 0. 0. 0. 0. 0. 0. 0. 0. 0. 0. 0. 0. 0. 0. 0. 0.
      0. 0. 0. 0. 0. 0. 0. 0. 0. 0. 0. 0. 0. 0. 0. 0. 0. 0. 0. 0. 0. 0.
      0. 0. 0. 0. 0. 0. 0. 0. 0. 0. 0. 0. 0. 0. 0. 0. 0. 0. 0. 0. 0. 0.
      0. 0. 0. 0. 0. 0. 0. 0. 0. 0. 0. 0. 0. 0. 0. 0. 0. 0. 0. 0. 0. 0.
      0. 0. 0. 0. 0. 0. 0. 0. 0. 0. 0. 0. 0. 0. 0. 0. 0. 0. 0. 0. 0. 0.
      0. 0. 0. 0. 0. 0. 0. 0. 0. 0. 0. 0. 0. 0. 0. 0. 0. 0. 0. 0. 0. 0.
      0. 0. 0. 0. 0. 0. 0. 0. 0. 0. 0. 0. 0. 0. 0. 0. 0. 0. 0. 0. 0. 0.
      0. 0. 0. 0. 0. 0. 0. 0. 0. 0. 0. 0. 0. 0. 0. 0. 0. 0. 0. 0. 0. 0.
      0. 0. 0. 0. 0. 0. 0. 0. 0. 0. 0. 0. 0. 0. 0. 0. 0. 0. 0. 0. 0. 0.
      0. 0. 0. 0. 0. 0. 0. 0. 0. 0. 0. 0. 0. 0. 0. 0. 0. 0. 0. 0. 0. 0.
      0. 0. 0. 0. 0. 0. 0. 0. 0. 0. 0. 0. 0. 0. 0. 0. 0. 0. 0. 0. 0. 0.
      0. 0. 0. 0. 0. 0. 0. 0. 0. 0. 0. 0. 0. 0. 0. 0. 0. 0. 0. 0. 0. 0.
      0. 0. 0. 0. 0. 0. 0. 0. 0. 0. 0. 0. 0. 0. 0. 0. 0. 0. 0. 0. 0. 0.
      0. 0. 0. 0. 0. 0. 0. 0. 0. 0. 0. 0. 0. 0. 0. 0. 0. 0. 0. 0. 0. 0.
      0. 0. 0. 0. 0. 0. 0. 0. 0. 0. 0. 0. 0. 0. 0. 0. 0. 0. 0. 0. 0. 0.
      0. 0. 0. 0. 0. 0. 0. 0. 0. 0. 0. 0. 0. 0. 0. 0. 0. 0. 0. 0. 0. 0.
      0. 0. 0. 0. 0. 0. 0. 0. 0. 0. 0. 0. 0. 0. 0. 0. 0. 0. 0. 0. 0. 0.
      0. 0. 0. 0. 0. 0. 0. 0. 0. 0. 0. 0. 0. 0. 0. 0. 0. 0. 0. 0. 0. 0.
      0. 0. 0. 0. 0. 0. 0. 0. 0. 0. 0. 0. 0. 0. 0. 0. 0. 0. 0. 0. 0. 0.
      0. 0. 0. 0. 0. 0. 0. 0. 0. 0. 0. 0. 0. 0. 0. 0. 0. 0. 0. 0. 0. 0.
      0. 0. 0. 0. 0. 0. 0. 0. 0. 0. 0. 0. 0. 0. 0. 0. 0. 0. 0. 0. 0. 0.
      0. 0. 0. 0. 0. 0. 0. 0. 0. 0. 0. 0. 0. 0. 0. 0. 0. 0. 0. 0. 0. 0.
      0. 0. 0. 0. 0. 0. 0. 0. 0. 0. 0. 0. 0. 0. 0. 0. 0. 0. 0. 0. 0. 0.
      0. 0. 0. 0. 0. 0. 0. 0. 0. 0. 0. 0. 0. 0. 0. 0. 0. 0. 0. 0. 0. 0.
      0. 0. 0. 0. 0. 0. 0. 0. 0. 0. 0. 0. 0. 0. 0. 0. 0. 0. 0. 0. 0. 0.
      0. 0. 0. 0. 0. 0. 0. 0. 0. 0. 0. 0. 0. 0. 0. 0. 0. 0. 0. 0. 0. 0.
      0. 0. 0. 0. 0. 0. 0. 0. 0. 0. 0. 0. 0. 0. 0. 0. 0. 0. 0. 0. 0. 0.
      0. 0. 0. 0. 0. 0. 0. 0. 0. 0. 0. 0. 0. 0. 0. 0. 0. 0. 0. 0. 0. 0.
      0. 0. 0. 0. 0. 0. 0. 0. 0. 0. 0. 0. 0. 0. 0. 0. 0. 0. 0. 0. 0. 0.
      0. 0. 0. 0. 0. 0. 0. 0. 0. 0. 0. 0. 0. 0. 0. 0. 0. 0. 0. 0. 0. 0.
      0. 0. 0. 0. 0. 0. 0. 0. 0. 0. 0. 0. 0. 0. 0. 0. 0. 0. 0. 0. 0. 0.
      0. 0. 0. 0. 0. 0. 0. 0. 0. 0. 0. 0. 0. 0. 0. 0. 0. 0. 0. 0. 0. 0.
      0. 0. 0. 0. 0. 0. 0. 0. 0. 0. 0. 0. 0. 0. 0. 0. 0. 0. 0. 0. 0. 0.
      0. 0. 0. 0. 0. 0. 0. 0. 0. 0. 0. 0. 0. 0. 0. 0. 0. 0. 0. 0. 0. 0.
      0. 0. 0. 0. 0. 0. 0. 0. 0. 0. 0. 0. 0. 0. 0. 0. 0. 0. 0. 0. 0. 0.
      0. 0. 0. 0. 0. 0. 0. 0. 0. 0. 0. 0. 0. 0. 0. 0. 0. 0. 0. 0. 0. 0.
      0. 0. 0. 0. 0. 0. 0. 0. 0. 0. 0. 0. 0. 0. 0. 0. 0. 0. 0. 0. 0. 0.
      0. 0. 0. 0. 0. 0. 0. 0. 0. 0. 0. 0. 0. 0. 0. 0. 0. 0. 0. 0. 0. 0.
      0. 0. 0. 0. 0. 0. 0. 0. 0. 0. 0. 0. 0. 0. 0. 0. 0. 0.</_>
    <_>
      0. 0. 0. 0. 0. 0. 0. 0. 0. 0. 0. 0. 0. 0. 0. 0. 0. 0. 0. 0. 0. 0.
      0. 0. 0. 0. 0. 0. 0. 0. 0. 0. 0. 0. 0. 0. 0. 0. 0. 0. 0. 0. 0. 0.
      0. 0. 0. 0. 0. 0. 0. 0. 0. 0. 0. 0. 0. 0. 0. 0. 0. 0. 0. 0. 0. 0.
      0. 0. 0. 0. 0. 0. 0. 0. 0. 0. 0. 0. 0. 0. 0. 0. 0. 0. 0. 0. 0. 0.
      0. 0. 0. 0. 0. 0. 0. 0. 0. 0. 0. 0. 0. 0. 0. 0. 0. 0. 0. 0. 0. 0.
      0. 0. 0. 0. 0. 0. 0. 0. 0. 0. 0. 0. 0. 0. 0. 0. 0. 0. 0. 0. 0. 0.
      0. 0. 0. 0. 0. 0. 0. 0. 0. 0. 0. 0. 0. 0. 0. 0. 0. 0. 0. 0. 0. 0.
      0. 0. 0. 0. 0. 0. 0. 0. 0. 0. 0. 0. 0. 0. 0. 0. 0. 0. 0. 0. 0. 0.
      0. 0. 0. 0. 0. 0. 0. 0. 0. 0. 0. 0. 0. 0. 0. 0. 0. 0. 0. 0. 0. 0.
      0. 0. 0. 0. 0. 0. 0. 0. 0. 0. 0. 0. 0. 0. 0. 0. 0. 0. 0. 0. 0. 0.
      0. 0. 0. 0. 0. 0. 0. 0. 0. 0. 0. 0. 0. 0. 0. 0. 0. 0. 0. 0. 0. 0.
      0. 0. 0. 0. 0. 0. 0. 0. 0. 0. 0. 0. 0. 0. 0. 0. 0. 0. 0. 0. 0. 0.
      0. 0. 0. 0. 0. 0. 0. 0. 0. 0. 0. 0. 0. 0. 0. 0. 0. 0. 0. 0. 0. 0.
      0. 0. 0. 0. 0. 0. 0. 0. 0. 0. 0. 0. 0. 0. 0. 0. 0. 0. 0. 0. 0. 0.
      0. 0. 0. 0. 0. 0. 0. 0. 0. 0. 0. 0. 0. 0. 0. 0. 0. 0. 0. 0. 0. 0.
      0. 0. 0. 0. 0. 0. 0. 0. 0. 0. 0. 0. 0. 0. 0. 0. 0. 0. 0. 0. 0. 0.
      0. 0. 0. 0. 0. 0. 0. 0. 0. 0. 0. 0. 0. 0. 0. 0. 0. 0. 0. 0. 0. 0.
      0. 0. 0. 0. 0. 0. 0. 0. 0. 0. 0. 0. 0. 0. 0. 0. 0. 0. 0. 0. 0. 0.
      0. 0. 0. 0. 0. 0. 0. 0. 0. 0. 0. 0. 0. 0. 0. 0. 0. 0. 0. 0. 0. 0.
      0. 0. 0. 0. 0. 0. 0. 0. 0. 0. 0. 0. 0. 0. 0. 0. 0. 0. 0. 0. 0. 0.
      0. 0. 0. 0. 0. 0. 0. 0. 0. 0. 0. 0. 0. 0. 0. 0. 0. 0. 0. 0. 0. 0.
      0. 0. 0. 0. 0. 0. 0. 0. 0. 0. 0. 0. 0. 0. 0. 0. 0. 0. 0. 0. 0. 0.
      0. 0. 0. 0. 0. 0. 0. 0. 0. 0. 0. 0. 0. 0. 0. 0. 0. 0. 0. 0. 0. 0.
      0. 0. 0. 0. 0. 0. 0. 0. 0. 0. 0. 0. 0. 0. 0. 0. 0. 0. 0. 0. 0. 0.
      0. 0. 0. 0. 0. 0. 0. 0. 0. 0. 0. 0. 0. 0. 0. 0. 0. 0. 0. 0. 0. 0.
      0. 0. 0. 0. 0. 0. 0. 0. 0. 0. 0. 0. 0. 0. 0. 0. 0. 0. 0. 0. 0. 0.
      0. 0. 0. 0. 0. 0. 0. 0. 0. 0. 0. 0. 0. 0. 0. 0. 0. 0. 0. 0. 0. 0.
      0. 0. 0. 0. 0. 0. 0. 0. 0. 0. 0. 0. 0. 0. 0. 0. 0. 0. 0. 0. 0. 0.
      0. 0. 0. 0. 0. 0. 0. 0. 0. 0. 0. 0. 0. 0. 0. 0. 0. 0. 0. 0. 0. 0.
      0. 0. 0. 0. 0. 0. 0. 0. 0. 0. 0. 0. 0. 0. 0. 0. 0. 0. 0. 0. 0. 0.
      0. 0. 0. 0. 0. 0. 0. 0. 0. 0. 0. 0. 0. 0. 0. 0. 0. 0. 0. 0. 0. 0.
      0. 0. 0. 0. 0. 0. 0. 0. 0. 0. 0. 0. 0. 0. 0. 0. 0. 0. 0. 0. 0. 0.
      0. 0. 0. 0. 0. 0. 0. 0. 0. 0. 0. 0. 0. 0. 0. 0. 0. 0. 0. 0. 0. 0.
      0. 0. 0. 0. 0. 0. 0. 0. 0. 0. 0. 0. 0. 0. 0. 0. 0. 0. 0. 0. 0. 0.
      0. 0. 0. 0. 0. 0. 0. 0. 0. 0. 0. 0. 0. 0. 0. 0. 0. 0. 0. 0. 0. 0.
      0. 0. 0. 0. 0. 0. 0. 0. 0. 0. 0. 0. 0. 0. 0. 0. 0. 0. 0. 0. 0. 0.
      0. 0. 0. 0. 0. 0. 0. 0. 0. 0. 0. 0. 0. 0. 0. 0. 0. 0. 0. 0. 0. 0.
      0. 0. 0. 0. 0. 0. 0. 0. 0. 0. 0. 0. 0. 0. 0. 0. 0. 0. 0. 0. 0. 0.
      0. 0. 0. 0. 0. 0. 0. 0. 0. 0. 0. 0. 0. 0. 0. 0. 0. 0. 0. 0. 0. 0.
      0. 0. 0. 0. 0. 0. 0. 0. 0. 0. 0. 0. 0. 0. 0. 0. 0. 0. 0. 0. 0. 0.
      0. 0. 0. 0. 0. 0. 0. 0. 0. 0. 0. 0. 0. 0. 0. 0. 0. 0. 0. 0. 0. 0.
      0. 0. 0. 0. 0. 0. 0. 0. 0. 0. 0. 0. 0. 0. 0. 0. 0. 0. 0. 0. 0. 0.
      0. 0. 0. 0. 0. 0. 0. 0. 0. 0. 0. 0. 0. 0. 0. 0. 0. 0. 0. 0. 0. 0.
      0. 0. 0. 0. 0. 0. 0. 0. 0. 0. 0. 0. 0. 0. 0. 0. 0. 0. 0. 0. 0. 0.
      0. 0. 0. 0. 0. 0. 0. 0. 0. 0. 0. 0. 0. 0. 0. 0. 0. 0. 0. 0. 0. 0.
      0. 0. 0. 0. 0. 0. 0. 0. 0. 0. 0. 0. 0. 0. 0. 0. 0. 0. 0. 0. 0. 0.
      0. 0. 0. 0. 0. 0. 0. 0. 0. 0. 0. 0. 0. 0. 0. 0. 0. 0. 0. 0. 0. 0.
      0. 0. 0. 0. 0. 0. 0. 0. 0. 0. 0. 0. 0. 0. 0. 0. 0. 0. 0. 0. 0. 0.
      0. 0. 0. 0. 0. 0. 0. 0. 0. 0. 0. 0. 0. 0. 0. 0. 0. 0. 0. 0. 0. 0.
      0. 0. 0. 0. 0. 0. 0. 0. 0. 0. 0. 0. 0. 0. 0. 0. 0. 0. 0. 0. 0. 0.
      0. 0. 0. 0. 0. 0. 0. 0. 0. 0. 0. 0. 0. 0. 0. 0. 0. 0. 0. 0. 0. 0.
      0. 0. 0. 0. 0. 0. 0. 0. 0. 0. 0. 0. 0. 0. 0. 0. 0. 0. 0. 0. 0. 0.
      0. 0. 0. 0. 0. 0. 0. 0. 0. 0. 0. 0. 0. 0. 0. 0. 0. 0. 0. 0. 0. 0.
      0. 0. 0. 0. 0. 0. 0. 0. 0. 0. 0. 0. 0. 0. 0. 0. 0. 0. 0. 0. 0. 0.
      0. 0. 0. 0. 0. 0. 0. 0. 0. 0. 0. 0. 0. 0. 0. 0. 0. 0. 0. 0. 0. 0.
      0. 0. 0. 0. 0. 0. 0. 0. 0. 0. 0. 0. 0. 0. 0. 0. 0. 0. 0. 0. 0. 0.
      0. 0. 0. 0. 0. 0. 0. 0. 0. 0. 0. 0. 0. 0. 0. 0. 0. 0. 0. 0. 0. 0.
      0. 0. 0. 0. 0. 0. 0. 0. 0. 0. 0. 0. 0. 0. 0. 0. 0. 0. 0. 0. 0. 0.
      0. 0. 0. 0. 0. 0. 0. 0. 0. 0. 0. 0. 0. 0. 0. 0. 0. 0. 0. 0. 0. 0.
      0. 0. 0. 0. 0. 0. 0. 0. 0. 0. 0. 0. 0. 0. 0. 0. 0. 0. 0. 0. 0. 0.
      0. 0. 0. 0. 0. 0. 0. 0. 0. 0. 0. 0. 0. 0. 0. 0. 0. 0. 0. 0. 0. 0.
      0. 0. 0. 0. 0. 0. 0. 0. 0. 0. 0. 0. 0. 0. 0. 0. 0. 0. 0. 0. 0. 0.
      0. 0. 0. 0. 0. 0. 0. 0. 0. 0. 0. 0. 0. 0. 0. 0. 0. 0. 0. 0. 0. 0.
      0. 0. 0. 0. 0. 0. 0. 0. 0. 0. 0. 0. 0. 0. 0. 0. 0. 0. 0. 0. 0. 0.
      0. 0. 0. 0. 0. 0. 0. 0. 0. 0. 0. 0. 0. 0. -4.07456886e-004 0. 0.
      0. 0. 0. 0. 0. -4.07456886e-004 -5.16393129e-003 -2.11002375e-003
      -5.16393129e-003 0. 0. 0. 0. 0. -5.16393129e-003 0. 0. 0. 0. 0. 0.
      0. 0. 0. 0. 0. 0. 0. 0. 0. 0. 0. 0. -3.20584676e-003
      -1.53218058e-003 -3.20584676e-003 0. 0. 0. -2.94690137e-003
      -9.84805287e-004 -3.20584676e-003 -3.20584676e-003
      -9.30845330e-004 -2.78544426e-003 0. 0. 0. -3.20584676e-003
      -1.63452153e-003 -3.20584676e-003 0. 0. 0. 0. 0. 0. 0. 0. 0. 0. 0.
      0. 0. 0. 0. 0. 0. 0. -6.98928395e-003 0. 0. 0. 0. 0.
      -5.08648995e-003 -2.67820945e-003 -6.98928395e-003
      -1.90279400e-003 0. 0. 0. 0. 0. 0. 0. -1.90279400e-003 0. 0. 0. 0.
      0. 0. 0. 0. 0. 0. 0. 0. 0. 0. 0. 0. 0. 0. -2.68818019e-003 0. 0.
      0. 0. 0. 0. 0. -2.68818019e-003 0. 0. 0. 0. 0. 0. 0. 0. 0. 0. 0.
      0. 0. 0. 0. 0. 0. 0. 0. 0. 0. 0. 0. 0. 0. 0. 0. 0. 0. 0. 0. 0. 0.
      0. 0. 0. 0. 0. 0. 0. 0. 0. 0. 0. 0. 0. 0. 0. 0. 0. 0. 0. 0. 0. 0.
      0. 0. 0. 0. 0. 0. 0. 0. 0. 0. 0. 0. 0. 0. 0. 0. 0. 0. 0. 0. 0. 0.
      0. 0. 0. 0. 0. 0. 0. 0. 0. 0. 0. 0. 0. 0. 0. 0. 0. 0. 0. 0. 0. 0.
      0. 0. 0. 0. 0. 0. 0. 0. 0. 0. 0. 0. 0. 0. 0. 0. 0. 0. 0. 0. 0. 0.
      0. 0. 0. 0. 0. -3.21512722e-004 -1.84098230e-004 -5.50892088e-004
      0. 0. 0. 0. 0. -3.21512722e-004 0. 0. 0. 0. 0. 0. 0. 0. 0.
      -2.89519900e-003 -7.47874007e-003 -7.47874007e-003 0.
      -7.47874007e-003 0. 0. 0. -2.89519900e-003 -4.66113212e-004
      -1.61919554e-004 -4.84525081e-004 0. 0. 0. -2.86887571e-005
      -9.58730379e-006 -4.66113212e-004 -1.43131276e-003
      -3.21673782e-004 -9.62570659e-004 0. 0. 0. -8.35901825e-004
      -2.79344444e-004 -1.43131276e-003 -4.83468920e-003
      -3.21788713e-003 -5.54591557e-003 0. -3.85292550e-003 0.
      -2.11945371e-004 -7.08286098e-005 -4.83468920e-003
      -9.73718055e-003 -5.20234415e-003 -7.04899989e-003 0.
      -1.76440901e-003 0. -4.59643919e-003 -2.24389392e-003
      -9.73718055e-003 -1.24880020e-003 -1.25185630e-004
      -3.74603202e-004 0. 0. 0. -1.14349299e-003 -3.82136262e-004
      -1.24880020e-003 -1.33793731e-003 -3.05835507e-004
      -9.15176526e-004 0. 0. 0. -2.04715732e-004 -6.84125771e-005
      -1.33793731e-003 -9.28982906e-003 -1.86438719e-003
      -5.04190242e-003 0. -6.62714429e-003 0. -5.08141518e-003
      -5.06371632e-003 -9.28982906e-003 -1.20130070e-002
      -5.63926343e-003 -5.88285876e-003 0. -8.28259252e-003 0.
      -4.64971457e-003 -2.03434518e-003 -1.20130070e-002
      -1.46854273e-003 -2.88408686e-004 -8.63028807e-004 0. 0. 0.
      -2.97146355e-004 -9.93013527e-005 -1.46854273e-003
      -2.02992605e-003 -1.94295644e-004 -5.81406639e-004 0. 0. 0.
      -8.74857418e-004 -2.92362733e-004 -2.02992605e-003
      -8.01193900e-003 -2.89571448e-003 -4.78477357e-003 0.
      -8.89016036e-003 0. -7.27348775e-003 -2.43067811e-003
      -8.01193900e-003 -5.37403580e-003 -9.94087080e-004
      -2.58138869e-003 0. -3.01297265e-003 0. -4.41264734e-003
      -2.88931956e-003 -5.37403580e-003 -1.54634740e-003
      -3.14079334e-005 -9.39845268e-005 0. 0. 0. -1.34250277e-003
      -4.48641949e-004 -1.54634740e-003 -1.75154259e-004 0. 0. 0. 0. 0.
      -1.92609819e-004 -6.43669919e-005 -1.75154259e-004
      -5.24726743e-003 -1.36101036e-004 -4.07266256e-004 0.
      -5.86414896e-003 0. -6.21182658e-003 -5.99843916e-003
      -5.24726743e-003 -9.80088487e-004 0. 0. 0. -2.58861040e-003 0.
      -1.99429435e-003 -1.16426533e-003 -9.80088487e-004 0. 0. 0. 0. 0.
      0. -2.05440112e-004 -6.86546555e-005 0. 0. 0. 0. 0. 0. 0. 0. 0. 0.
      0. 0. 0. 0. -3.13995942e-003 0. -3.13995942e-003 -2.49168789e-003
      0. 0. 0. 0. 0. 0. 0. 0. 0. 0. 0. 0. 0. 0. 0. 0. 0. 0. 0. 0. 0. 0.
      0. 0. 0. 0. 0. 0. 0. 0. 0. 0. 0. 0. 0. 0. 0. 0. 0. 0. 0. 0. 0. 0.
      0. 0. 0. 0. 0. 0. 0. 0. 0. 0. 0. 0. -8.67238487e-005
      -2.59510824e-004 0. 0. 0. 0. 0. 0. 0. 0. 0. 0. 0. 0. 0. 0. 0. 0.
      -5.31332241e-003 -5.31332241e-003 0. -5.31332241e-003 0. 0. 0. 0.
      -3.89601482e-005 -4.33283945e-004 -1.29655073e-003 0. 0. 0. 0. 0.
      -3.89601482e-005 -2.24422710e-003 -1.58842420e-003
      -3.57322977e-003 0. 0. 0. 0. 0. -2.24422710e-003 -3.03023407e-005
      -2.95127602e-003 -3.57322977e-003 0. -1.31095177e-003 0. 0. 0.
      -3.03023407e-005 -2.10111984e-003 -3.57322977e-003
      -3.57322977e-003 0. -3.59941740e-004 0. 0. 0. -2.10111984e-003
      -2.40965933e-003 -9.04106535e-004 -2.40965933e-003 0.
      -7.89693149e-006 0. -1.04647188e-003 -3.49713431e-004
      -2.40965933e-003 -2.74267280e-003 -7.70371116e-004
      -2.30524410e-003 0. -8.05184536e-004 0. -2.40965933e-003
      -1.16884301e-003 -2.74267280e-003 -2.40965933e-003
      -1.14812935e-003 -2.47084512e-003 0. -3.47319670e-004 0.
      -8.39779852e-004 -2.80640408e-004 -2.40965933e-003
      -1.15795238e-002 -4.40119160e-003 -4.88850614e-003 0.
      -6.56626187e-003 0. -2.40965933e-003 -1.72481895e-003
      -1.15795238e-002 -2.16178154e-003 -3.20296123e-004
      -9.58448218e-004 0. -2.13394267e-003 0. -3.93179012e-003
      -1.39787898e-003 -2.16178154e-003 -1.92279951e-003
      -4.72300046e-004 -1.41330203e-003 0. -5.20818809e-004 0.
      -9.96867078e-004 -3.33136326e-004 -1.92279951e-003
      -1.09000411e-002 -2.02558748e-003 -3.82806221e-003 0.
      -6.94392435e-003 0. -4.04326292e-003 -3.34390649e-003
      -1.09000411e-002 -8.18190817e-003 -5.25000412e-003
      -6.68193586e-003 0. -6.45763474e-003 0. -4.11348743e-003
      -1.74244645e-003 -8.18190817e-003 -1.76497560e-003
      -1.84134202e-004 -5.50999714e-004 0. -3.21495696e-004 0.
      -1.57440559e-003 -5.26140037e-004 -1.76497560e-003
      -5.83738205e-004 -2.20761740e-005 -6.60603400e-005 0.
      -1.75936337e-004 0. -7.63571879e-004 -2.55172956e-004
      -5.83738205e-004 -6.47424813e-003 -1.54669664e-003
      -3.97193385e-003 0. -3.13755614e-003 0. -4.83699096e-003
      -3.77896568e-003 -6.47424813e-003 -3.67374206e-003
      -8.30151199e-004 -2.01009051e-003 0. -3.32867075e-003 0.
      -5.70625206e-003 -2.72837165e-003 -3.67374206e-003
      -3.72365088e-004 0. 0. 0. -1.86898338e-004 0. -7.89463636e-004
      -2.63825583e-004 -3.72365088e-004 0. 0. 0. 0. 0. 0. 0. 0. 0.
      -3.42376973e-003 -2.82440626e-004 -8.45170056e-004 0.
      -2.50495807e-003 0. -4.98551130e-003 -4.49097948e-003
      -3.42376973e-003 -5.36544074e-004 0. 0. 0. -1.20656907e-004 0.
      -1.29289634e-003 -4.32064320e-004 -5.36544074e-004 0. 0. 0. 0. 0.
      0. 0. 0. 0. 0. 0. 0. 0. 0. 0. 0. 0. 0. 0. 0. 0. 0. 0. 0. 0. 0. 0.
      0. 0. 0. 0. 0. 0. 0. 0. 0. 0. 0. 0. 0. 0. 0. 0. 0. 0. 0. 0. 0. 0.
      0. 0. 0. 0. 0. 0. 0. 0. 0. 0. 0. 0. 0. 0. 0. 0. 0. 0. 0. 0. 0. 0.
      0. 0. -1.14162940e-005 -3.41619052e-005 0. -2.50784178e-005 0. 0.
      0. 0. -7.93161569e-004 -2.84428569e-003 -8.51118751e-003 0.
      -7.94483814e-003 0. 0. 0. -7.93161569e-004 0. -2.95533478e-004
      -8.84348818e-004 0. -1.22480991e-003 0. 0. 0. 0. -9.14415054e-004
      -3.59024806e-003 -6.01156754e-003 0. -1.40072452e-002 0. 0. 0.
      -9.14415054e-004 -2.49653030e-003 -2.91915843e-003
      -6.80231629e-003 0. -5.22138085e-003 0. -6.71243542e-005
      -2.24318392e-005 -2.49653030e-003 -6.06700452e-003
      -2.95813452e-003 -7.65955029e-003 0. -4.60253702e-003 0.
      -2.89062457e-003 -9.65998392e-004 -6.06700452e-003
      -1.44358166e-003 -2.65373243e-003 -5.27452724e-003 0.
      -7.09046377e-003 0. -2.14690681e-006 -7.17460409e-007
      -1.44358166e-003 -6.14101486e-003 -3.83664202e-003
      -6.33611018e-003 0. -9.17143747e-003 0. -5.85424656e-004
      -1.95639121e-004 -6.14101486e-003 -5.64063946e-003
      -1.98498764e-003 -4.39258153e-003 0. -8.14137515e-003 0.
      -5.92340250e-003 -2.24256446e-003 -5.64063946e-003
      -4.64143511e-003 -3.52333882e-003 -7.59033253e-003 0.
      -9.75160766e-003 0. -4.47714841e-003 -1.49618823e-003
      -4.64143511e-003 -6.21992769e-003 -1.85505755e-003
      -4.74770367e-003 0. -1.21828001e-002 0. -3.10325087e-003
      -1.14347122e-003 -6.21992769e-003 -1.07286396e-002
      -1.93270820e-003 -4.83747479e-003 0. -1.21828001e-002 0.
      -3.69122624e-003 -1.70552323e-003 -1.07286396e-002
      -5.10415528e-003 -2.73537962e-003 -7.05798250e-003 0.
      -1.20438514e-002 0. -5.55883162e-003 -1.85766874e-003
      -5.10415528e-003 -3.58808134e-003 -4.54931433e-004
      -1.36132829e-003 0. -3.43005406e-003 0. -4.57702717e-003
      -2.20600609e-003 -3.58808134e-003 -1.00177061e-002
      -1.61300146e-003 -4.82670171e-003 0. -1.60223916e-002 0.
      -5.23410551e-003 -3.09932441e-003 -1.00177061e-002
      -3.30029731e-003 -1.03329925e-003 -1.72375981e-003 0.
      -4.60874150e-003 0. -3.65602272e-003 -1.58855610e-003
      -3.30029731e-003 -1.19980203e-003 -1.37365903e-004
      -4.11049870e-004 0. -6.63329056e-003 0. -6.69789780e-003
      -2.43442692e-003 -1.19980203e-003 -2.42888520e-004
      -1.90699488e-004 -5.70643402e-004 0. -2.58964160e-003 0.
      -1.67205883e-003 -5.86052542e-004 -2.42888520e-004
      -1.35268399e-003 -1.22683903e-003 -2.37922021e-003 0.
      -8.58947169e-003 0. -6.87630661e-003 -3.03124846e-003
      -1.35268399e-003 -4.41617798e-004 -6.98105083e-004
      -1.49989640e-003 0. -4.51651216e-003 0. -9.00911400e-004
      -3.01069522e-004 -4.41617798e-004 0. -3.87064239e-004
      -1.15823944e-003 0. -2.38107634e-003 0. -2.36918940e-003
      -7.91743514e-004 0. 0. 0. 0. 0. 0. 0. 0. 0. 0. 0. -9.15244455e-004
      -2.38107634e-003 0. -2.38107634e-003 0. -6.25760062e-004
      -2.09118545e-004 0. 0. 0. 0. 0. 0. 0. 0. 0. 0. 0. 0. 0. 0. 0. 0.
      0. 0. 0. 0. 0. 0. 0. 0. 0. 0. 0. 0. 0. 0. 0. 0. 0. 0. 0. 0. 0. 0.
      0. 0. 0. -9.18763876e-003 0. 0. 0. 0. 0. -3.87138462e-005
      -1.15846597e-004 0. -1.08206405e-004 0. 0. 0. 0. 0.
      -2.07143789e-003 -3.75474896e-003 0. -3.61236371e-003 0. 0. 0. 0.
      0. -9.22097766e-004 -2.75926851e-003 0. -1.63998571e-003 0. 0. 0.
      0. 0. -3.75474896e-003 -3.75474896e-003 0. -3.75474896e-003 0. 0.
      0. 0. 0. -3.42998002e-003 -3.42998002e-003 0. -3.42998002e-003 0.
      0. 0. 0. -1.46039485e-004 -2.12527090e-003 -3.42998002e-003 0.
      -3.15788481e-003 0. 0. 0. -1.46039485e-004 0. -2.74902489e-003
      -3.42998002e-003 0. -3.42998002e-003 0. 0. 0. 0. 0.
      -4.87882411e-003 -9.74521134e-003 0. -9.63942893e-003 0. 0. 0. 0.
      -1.13480771e-003 -9.91625362e-004 -2.96732155e-003 0.
      -8.74555029e-004 0. -2.79108008e-005 -9.32732382e-006
      -1.13480771e-003 -4.48180130e-003 -2.42216839e-003
      -6.61357958e-003 0. -9.70410462e-003 0. -5.06864255e-003
      -1.69385574e-003 -4.48180130e-003 -3.75962787e-004
      -2.50759977e-003 -5.79838036e-003 0. -6.09937916e-003 0. 0. 0.
      -3.75962787e-004 2.92133121e-003 -8.66620615e-003 -7.80135812e-003
      0. -1.41580515e-002 0. -1.57805218e-004 -5.27358607e-005
      2.92133121e-003 -4.69284412e-003 -2.05849833e-003 -4.65407269e-003
      0. -9.57116019e-003 0. -4.91113542e-003 -1.64121948e-003
      -4.69284412e-003 -4.52273246e-003 -2.13590916e-003
      -6.34525670e-003 0. -1.08041987e-002 0. -4.61066281e-003
      -1.54080649e-003 -4.52273246e-003 2.53839185e-004 -1.42858934e-003
      -4.43453901e-003 0. -1.43340537e-002 0. -9.27652698e-004
      -1.10306044e-003 2.53839185e-004 -1.79807853e-003 -4.29735519e-003
      -3.84911592e-003 0. -2.01067291e-002 0. -1.49036210e-003
      -1.32591301e-003 -1.79807853e-003 -4.24204720e-003
      -1.03566446e-003 -2.92413239e-003 0. -7.54749961e-003 0.
      -5.89746470e-003 -2.21620779e-003 -4.24204720e-003
      -2.62502139e-003 -4.65775898e-004 -1.39377930e-003 0.
      -5.41245099e-003 0. -5.08862408e-003 -1.78596831e-003
      -2.62502139e-003 3.17198597e-003 -1.81419041e-003 -2.75820238e-003
      0. -1.62369628e-002 0. -7.89503194e-003 -5.19709289e-003
      3.17198597e-003 -3.76021164e-003 -5.11722872e-004 -1.53126998e-003
      0. -9.86105856e-003 0. -5.63046336e-003 -3.26626003e-003
      -3.76021164e-003 -2.08395324e-003 -5.46645570e-005
      -1.63577206e-004 0. -5.57311997e-003 0. -4.35637776e-003
      -1.66135863e-003 -2.08395324e-003 -1.10800363e-004 0. 0. 0.
      -1.01346977e-003 0. -7.94856227e-004 -2.65627663e-004
      -1.10800363e-004 -3.55089107e-003 -2.48475280e-005
      -7.43532873e-005 0. -1.35461809e-002 0. -7.00008357e-003
      -5.97519102e-003 -3.55089107e-003 -5.60778717e-005 0. 0. 0.
      -2.33423547e-003 0. -1.69765693e-003 -5.67328592e-004
      -5.60778717e-005 0. 0. 0. 0. -5.47449745e-004 0. 0. 0. 0. 0. 0. 0.
      0. 0. 0. 0. 0. 0. 0. 0. 0. 0. -5.05734934e-003 0. 0. 0. 0. 0. 0.
      0. 0. 0. 0. 0. 0. 0. 0. 0. 0. 0. 0. 0. 0. 0. 0. 0. 0. 0. 0.
      -5.65240160e-004 0. 0. 0. 0. 0. 0. 0. 0. 0. 0. 0. 0. 0. 0. 0. 0.
      0. -5.05540147e-003 0. 0. 0. 0. 0. -3.05456197e-004
      -9.14041477e-004 0. -1.65702554e-003 0. 0. 0. 0. -6.72795213e-005
      -1.59844279e-003 -3.13553005e-003 0. -1.49746425e-002 0. 0. 0.
      -6.72795213e-005 0. -4.69727442e-004 -1.40560372e-003 0.
      -2.27743969e-003 0. 0. 0. 0. 3.23464349e-003 1.71063689e-003
      -2.39236047e-003 0. -1.26746232e-002 0. -1.20911235e-003
      -4.04064107e-004 3.23464349e-003 -5.73434518e-004 -1.75329146e-003
      -4.01800405e-003 0. -1.07461093e-002 0. 0. 0. -5.73434518e-004
      -2.25393637e-003 -1.84463023e-003 -5.51983388e-003 0.
      -1.23044159e-002 0. -3.96881049e-004 -1.32631030e-004
      -2.25393637e-003 2.68996973e-003 3.79500416e-005 -5.56012266e-004
      0. -1.12810638e-002 0. -3.47615751e-005 -1.16165756e-005
      2.68996973e-003 5.61031327e-003 -5.01645356e-003 -9.52771865e-003
      0. -2.03651581e-002 0. 2.41110334e-003 1.16970623e-003
      5.61031327e-003 -2.86967331e-003 -1.82141212e-003 -5.33965603e-003
      0. -1.46043468e-002 0. -2.29028123e-003 -7.65373232e-004
      -2.86967331e-003 -5.42073883e-003 -2.26947712e-003
      -5.65055106e-003 0. -1.59360413e-002 0. -5.69356605e-003
      -1.90269249e-003 -5.42073883e-003 4.18557134e-003 -3.47856618e-003
      -6.94637978e-003 0. -1.88962743e-002 0. 1.92130008e-003
      2.64210044e-003 4.18557134e-003 -3.74059280e-004 -3.84817226e-003
      -5.92353987e-003 0. -1.98444948e-002 0. -5.90511656e-004
      -9.80342156e-004 -3.74059280e-004 -4.92150057e-003
      -1.45168579e-003 -3.52219935e-003 0. -1.92483161e-002 0.
      -6.32879091e-003 -2.11497513e-003 -4.92150057e-003
      -2.43384764e-003 -1.40062207e-003 -2.50877626e-003 0.
      -6.84874039e-003 0. -4.50335583e-003 -1.50494627e-003
      -2.43384764e-003 1.05517998e-003 -1.43746659e-003 -4.30143764e-003
      0. -2.41172183e-002 0. -6.63278438e-003 -4.76407679e-003
      1.05517998e-003 -2.10033357e-003 -7.65437377e-004 -2.29047169e-003
      0. -9.37416404e-003 0. -3.41508375e-003 -2.18715798e-003
      -2.10033357e-003 -1.94561982e-003 -2.50060414e-003
      -3.60633782e-003 0. -9.58318543e-003 0. -5.69170527e-003
      -1.90207281e-003 -1.94561982e-003 -1.09903899e-003
      -9.39816993e-004 -1.94561982e-003 0. -5.20553440e-003 0.
      -5.36936510e-004 -1.79435214e-004 -1.09903899e-003
      -5.62017434e-004 -8.30501609e-004 -2.48516793e-003 0.
      -1.31772123e-002 0. -6.54885406e-003 -4.35988232e-003
      -5.62017434e-004 -5.83921610e-005 -8.82290533e-006
      -2.64013943e-005 0. -4.63278871e-003 0. -8.15177045e-005
      -2.72418547e-005 -5.83921610e-005 0. -2.82806042e-003
      -2.99861608e-003 0. -2.99861608e-003 0. 0. 0. 0. 0. 0. 0. 0. 0. 0.
      0. 0. 0. 0. 0. 0. 0. 0. 0. 0. 0. 0. 7.04615610e-003 0. 0. 0. 0. 0.
      0. 0. 7.04615610e-003 0. 0. 0. 0. 0. 0. 0. 0. 0. 0.
      -6.60442340e-004 -1.97629514e-003 0. -3.64609994e-003 0. 0. 0. 0.
      4.53574350e-003 6.15669589e-004 1.84231845e-003 0. 0. 0. 0. 0.
      4.53574350e-003 6.18980452e-003 1.85857434e-003 1.25859550e-003 0.
      -4.93120914e-003 0. 0. 0. 6.18980452e-003 9.08327820e-006
      -1.22966280e-003 -3.01739643e-003 0. -3.01739643e-003 0. 0. 0.
      9.08327820e-006 3.88530956e-004 -2.39521684e-003 -2.97462568e-003
      0. -3.01739643e-003 0. 0. 0. 3.88530956e-004 6.92788139e-003
      6.85753941e-004 2.53815460e-003 0. -3.01739643e-003 0. 0. 0.
      6.92788139e-003 1.12677393e-002 5.47177158e-003 5.36155934e-003 0.
      -3.01739643e-003 0. 0. 0. 1.12677393e-002 6.48600690e-004
      -1.99475791e-003 -3.04544950e-003 0. -3.31750535e-003 0. 0. 0.
      6.48600690e-004 2.10404000e-003 -1.04058988e-003 -3.11384187e-003
      0. -9.24083404e-003 0. 0. 0. 2.10404000e-003 8.88932496e-003
      2.48224125e-003 6.00667391e-003 0. -3.31750535e-003 0. 0. 0.
      8.88932496e-003 5.82273491e-003 -7.91451894e-004 -5.97691350e-003
      0. -1.90011282e-002 0. 0. 0. 5.82273491e-003 3.33637279e-003
      -1.65876094e-003 -3.81126930e-003 0. -6.90444885e-003 0.
      1.20293393e-004 4.02000405e-005 3.33637279e-003 3.98521684e-003
      -2.34332727e-003 -5.73948678e-003 0. -1.46225700e-002 0.
      8.85564135e-004 2.95940699e-004 3.98521684e-003 6.71951612e-003
      3.67969042e-004 -1.34068914e-003 0. -1.31839579e-002 0.
      5.21271431e-004 1.74200177e-004 6.71951612e-003 6.23200601e-003
      -2.58853403e-003 -4.70905052e-003 0. -1.40788434e-002 0.
      3.82544030e-003 1.93152390e-003 6.23200601e-003 3.27695650e-003
      -1.95554411e-003 -3.61118605e-003 0. -1.72782429e-002 0.
      1.85446479e-004 6.19730563e-005 3.27695650e-003 1.35907333e-003
      -3.41294613e-003 -4.14398639e-003 0. -2.07157116e-002 0.
      -1.45171175e-003 -4.60255687e-004 1.35907333e-003 7.64607964e-003
      -2.46367394e-003 -2.69135134e-003 0. -1.15456861e-002 0.
      5.74845541e-003 4.50196303e-003 7.64607964e-003 4.36864095e-003
      -2.35985732e-003 -3.36548267e-003 0. -1.18304063e-002 0.
      6.86661294e-003 3.55756818e-003 4.36864095e-003 2.40158741e-004
      -1.93318306e-003 -4.35882574e-003 0. -1.55543163e-002 0.
      -2.01542606e-003 -3.45636508e-004 2.40158741e-004 -1.20135862e-003
      -4.74151631e-004 -1.41883874e-003 0. -1.16565805e-002 0.
      -3.23937112e-003 -1.73744012e-003 -1.20135862e-003 3.17938183e-003
      -3.02264845e-004 1.79894938e-004 0. -2.68964213e-003 0.
      5.31935273e-003 4.78206947e-003 3.17938183e-003 3.78290461e-005
      -1.13407942e-003 -2.89466721e-003 0. -8.38732347e-003 0.
      4.87966463e-004 1.63070203e-004 3.78290461e-005 -2.75707891e-004
      -4.26920858e-004 -1.27750507e-003 0. -1.31442491e-002 0.
      -4.87446785e-003 -1.96447154e-003 -2.75707891e-004 0. 0. 0. 0.
      -3.20632453e-003 0. -4.88742779e-004 -1.63329663e-004 0. 0.
      -1.59441668e-003 -4.21628868e-003 0. -1.31442491e-002 0.
      -1.97240990e-003 -6.59146404e-004 0. 0. 0. 0. 0. -3.34835448e-003
      0. 0. 0. 0. 0. 0. 0. 0. -3.60212196e-003 0. 0. 0. 0. 0. 0. 0. 0.
      0. 0. 0. 0. 0. 0. 0. 0. 0. -3.60212196e-003 0. 0. 0. 0. 0. 0. 0.
      0. 0. 0. 0. 0. 0. 0. 0. 0. 0. 0. 0. 0. 0. 0. 0. 0. 0. 0.
      -3.60212196e-003 0. 0. 0. 0. 0. 0. 0. 0. 0. 0. 0. 0. 0. 0. 0. 0.
      0. -3.60212196e-003 0. 0. 0. 0. 0. -1.71991269e-004
      -5.14663465e-004 0. -2.88668252e-003 0. 0. 0. 0. 2.85625283e-004
      4.33328532e-004 7.48022401e-004 0. -1.36928689e-002 0.
      -1.81905134e-003 -6.07895025e-004 2.85625283e-004 0. 0. 0. 0.
      -2.95143970e-003 0. -2.56737228e-004 -8.57970663e-005 0.
      9.77559132e-004 2.78102793e-003 4.34007077e-003 0.
      -1.27812233e-002 0. 2.32930644e-003 1.12829194e-003
      9.77559132e-004 1.33461517e-003 7.96185748e-004 1.35782652e-003 0.
      -1.02386819e-002 0. -7.50542735e-004 -2.50818121e-004
      1.33461517e-003 3.46969487e-003 -2.68835371e-004 -8.09991092e-004
      0. -2.06634849e-002 0. 1.44600484e-003 4.83231415e-004
      3.46969487e-003 1.64128351e-003 2.40699109e-003 5.86869940e-003 0.
      -7.01187318e-003 0. 1.26444618e-003 4.35741676e-004
      1.64128351e-003 6.89730514e-003 5.99069614e-003 6.43176306e-003 0.
      -1.52751533e-002 0. 6.74097566e-004 2.25273005e-004
      6.89730514e-003 3.17024044e-003 -1.52649102e-003 -4.56783222e-003
      0. -2.16425564e-002 0. 1.79728831e-003 1.49556913e-003
      3.17024044e-003 3.29990336e-003 -1.17706333e-003 -3.52221681e-003
      0. -2.27622055e-002 0. 1.85069186e-003 4.72968823e-004
      3.29990336e-003 7.45352032e-003 2.04390683e-003 3.81675013e-003 0.
      -1.90776866e-002 0. 3.38963699e-003 1.58568204e-003
      7.45352032e-003 8.37053265e-003 3.08057468e-004 9.21825878e-004 0.
      -2.28423774e-002 0. -4.77133261e-004 2.50825309e-004
      8.37053265e-003 1.69059378e-003 -2.92104692e-003 -4.01665503e-003
      0. -2.65458319e-002 0. -2.17697630e-003 -8.29177385e-004
      1.69059378e-003 3.85967083e-003 -3.52000585e-004 -1.05331582e-003
      0. -1.08873341e-002 0. -1.53853255e-003 -5.14151878e-004
      3.85967083e-003 1.14143183e-002 2.12635627e-004 6.36289071e-004 0.
      -2.19553225e-002 0. -2.22670473e-003 -1.51640677e-003
      1.14143183e-002 1.78170484e-002 7.14759715e-003 7.49822007e-003 0.
      -1.12007195e-002 0. 7.48206046e-004 1.15946354e-003
      1.78170484e-002 3.07326089e-003 -7.64348661e-004 -2.28721369e-003
      0. -1.28642200e-002 0. -1.99779379e-003 -6.67629356e-004
      3.07326089e-003 3.41390143e-003 2.20723232e-004 6.60488033e-004 0.
      -4.27746633e-003 0. 3.83210543e-004 1.28062558e-004
      3.41390143e-003 1.60026215e-002 2.91733746e-003 6.22569025e-003 0.
      -1.21088605e-002 0. -3.73850623e-003 2.44258728e-004
      1.60026215e-002 2.16320641e-002 1.08589409e-002 1.13972779e-002 0.
      -4.27746633e-003 0. 3.47724208e-003 1.35673897e-003
      2.16320641e-002 3.06795794e-003 4.32914472e-004 1.29544525e-003 0.
      0. 0. 5.83485409e-004 1.94991109e-004 3.06795794e-003
      5.67622110e-003 1.27488712e-003 3.81494872e-003 0. 0. 0.
      8.89522416e-005 2.97263541e-005 5.67622110e-003 2.02377494e-002
      4.92284214e-003 9.41507239e-003 0. -1.28674251e-003 0.
      6.13627769e-003 2.09898874e-003 2.02377494e-002 2.04486698e-002
      8.89433722e-004 2.90652225e-003 0. 0. 0. 2.59586633e-003
      8.67495255e-004 2.04486698e-002 5.87639865e-003 1.34625041e-003
      4.00114758e-003 0. 0. 0. 6.80855646e-006 2.27530586e-006
      5.87639865e-003 8.20000470e-003 1.21064926e-003 2.55653425e-003 0.
      -3.78395058e-003 0. 1.84190765e-004 6.15534809e-005
      8.20000470e-003 1.97706278e-002 2.86515057e-003 5.94922341e-003 0.
      0. 0. 3.44455941e-004 1.15111427e-004 1.97706278e-002
      1.78687721e-002 3.84470513e-005 5.23738377e-003 0.
      -2.53031589e-003 0. 2.97446316e-003 9.94015834e-004
      1.78687721e-002 9.03544296e-003 1.45416392e-003 3.80339404e-003 0.
      -3.19037843e-003 0. 1.87158323e-004 6.25451794e-005
      9.03544296e-003 9.20994300e-003 3.28426040e-003 5.06280037e-003 0.
      -3.05324607e-003 0. 7.11017719e-006 2.37610266e-006
      9.20994300e-003 1.71224084e-002 -2.37336659e-004 3.16588092e-003
      0. -3.19037843e-003 0. 3.29136499e-003 1.68058102e-003
      1.71224084e-002 1.11127710e-002 -1.04725938e-002 -9.49591026e-003
      0. -2.51769065e-003 0. 2.33689207e-003 7.80950300e-004
      1.11127710e-002 9.09182522e-003 2.69708433e-003 5.50768292e-003 0.
      -2.71194219e-003 0. 0. 0. 9.09182522e-003 9.32986755e-003
      5.12036844e-004 9.87573549e-006 0. -1.24734920e-002 0. 0. 0.
      9.32986755e-003 1.43584041e-002 -2.52813334e-003 -3.77867115e-003
      0. -3.85900913e-003 0. 2.15149688e-004 7.18994343e-005
      1.43584041e-002 1.09935943e-002 -9.32037923e-003 -7.95208663e-003
      0. -1.24935722e-002 0. 0. 0. 1.09935943e-002 7.99957104e-003
      -1.12354790e-003 -3.39343795e-003 0. -1.50485998e-002 0.
      1.93904067e-004 6.47995039e-005 7.99957104e-003 8.51172954e-003
      -2.12073699e-003 -7.17606163e-004 0. -1.30493771e-002 0.
      2.88404780e-003 9.94392321e-004 8.51172954e-003 1.40001886e-002
      -3.79874604e-003 -3.51579348e-003 0. -1.52972192e-002 0.
      1.61171297e-003 5.38607535e-004 1.40001886e-002 1.52922142e-002
      -4.88569611e-004 3.78626748e-004 0. -1.88697670e-002 0.
      3.89054557e-003 1.30015530e-003 1.52922142e-002 3.42439092e-003
      -5.55735547e-003 -4.15723026e-003 0. -1.24855107e-002 0.
      3.98304267e-003 1.73598481e-003 3.42439092e-003 4.09353292e-003
      4.70855099e-004 9.33441799e-004 0. -1.19866040e-002 0.
      5.11475746e-003 1.82145729e-003 4.09353292e-003 1.59395430e-002
      2.40089488e-003 2.88278540e-003 0. -1.52248619e-002 0.
      6.04686653e-003 2.10779510e-003 1.59395430e-002 1.40233161e-002
      3.55533208e-003 4.24569333e-003 0. -1.74469016e-002 0.
      7.64598418e-003 2.75089801e-003 1.40233161e-002 2.59710988e-003
      1.68254878e-003 2.28068931e-003 0. -7.23874569e-003 0.
      6.39230479e-003 2.26800400e-003 2.59710988e-003 5.50394412e-004
      -1.06362090e-003 -1.93143601e-003 0. -8.79377872e-003 0.
      1.50601740e-003 5.03285846e-004 5.50394412e-004 1.37087796e-002
      2.79377634e-003 1.10047415e-003 0. -6.90225465e-003 0.
      7.12791365e-003 6.36996003e-003 1.37087796e-002 2.97315698e-003
      -1.27254124e-003 -2.18536519e-003 0. -8.66788812e-003 0.
      3.95899173e-003 1.89035584e-003 2.97315698e-003 2.14599320e-004
      -2.39550462e-003 -4.33271984e-003 0. -1.27192503e-002 0.
      4.43294994e-004 1.48141786e-004 2.14599320e-004 0. 0. 0. 0.
      -3.03840893e-003 0. 0. 0. 0. 5.77159168e-004 -1.06138946e-003
      -2.90778186e-003 0. -7.45744864e-003 0. 4.72095376e-003
      2.23630248e-003 5.77159168e-004 0. 4.32441857e-006 1.29402597e-005
      0. -2.77539692e-003 0. 3.95698808e-005 1.32235928e-005 0. 0. 0. 0.
      0. -3.60212196e-003 0. 0. 0. 0. 0. 0. 0. 0. 0. 0. 0. 0. 0. 0. 0.
      0. 0. -3.60212196e-003 0. 0. 0. 0. 0. 0. 0. 0. 0. 0. 0. 0. 0. 0.
      0. 0. 0. 0. 0. 0. 0. 0. 0. 0. 0. 0. -3.60212196e-003 0. 0. 0. 0.
      0. 0. 0. 0. 0. 0. 0. 0. 0. 0. 0. 0. 0. -3.60212196e-003 0. 0. 0.
      0. 0. 0. 0. 0. -2.42808461e-003 0. -7.82912481e-004
      -2.61635578e-004 0. 5.40453475e-004 1.13028055e-003
      3.16115865e-003 0. -8.95895995e-003 0. 2.07075011e-003
      2.73359683e-003 5.40453475e-004 0. 0. 0. 0. -2.46344390e-003 0.
      -1.27606548e-003 -4.26438695e-004 0. 5.71333687e-004
      2.26791861e-004 6.78647775e-004 0. -5.56888152e-003 0.
      -2.44021928e-003 -1.09517144e-003 5.71333687e-004 1.12000341e-003
      1.08587102e-003 2.84783589e-003 0. -4.69420617e-003 0.
      9.94156930e-004 1.11073197e-003 1.12000341e-003 3.64188664e-003
      2.42218422e-003 5.68956789e-003 0. -1.34845339e-002 0.
      -2.17224797e-003 -4.93618543e-004 3.64188664e-003 9.93771013e-004
      7.37283437e-004 2.20623333e-003 0. -6.96106255e-003 0.
      -1.97062409e-003 -5.49947959e-004 9.93771013e-004 1.03276446e-002
      8.77765939e-003 9.53470729e-003 0. -1.09968390e-002 0.
      -1.64767972e-003 1.61925051e-003 1.03276446e-002 4.45305044e-003
      1.23721315e-003 3.44809168e-003 0. -1.37742003e-002 0.
      -1.96694839e-003 -1.01716490e-003 4.45305044e-003 6.90638134e-003
      1.19886326e-003 3.58745619e-003 0. -1.92466509e-002 0.
      -1.14622964e-002 -5.00402693e-003 6.90638134e-003 1.16970837e-002
      4.27717995e-003 1.01811597e-002 0. -7.94810429e-003 0.
      -3.41074192e-003 -7.78851972e-004 1.16970837e-002 1.43001033e-002
      9.51776002e-003 1.06338672e-002 0. -1.37760192e-002 0.
      -9.91750136e-003 -7.40217930e-003 1.43001033e-002 9.34359245e-003
      1.36703637e-003 4.09069424e-003 0. -1.33766122e-002 0.
      -7.59694027e-003 -3.09940754e-003 9.34359245e-003 1.27780549e-002
      2.85999360e-003 5.72396489e-003 0. -1.06483037e-002 0.
      -3.31022707e-003 -2.79756193e-003 1.27780549e-002 1.21226264e-002
      5.54470951e-003 8.38123448e-003 0. -1.55427018e-002 0.
      -1.24905230e-002 -8.86359811e-003 1.21226264e-002 9.93201695e-003
      4.74308338e-003 8.38123448e-003 0. -7.68665737e-003 0.
      -7.05599645e-003 -5.06351329e-003 9.93201695e-003 1.47476355e-002
      4.21417737e-003 6.63266564e-003 0. -5.51055931e-003 0.
      -3.74549604e-003 -1.64428435e-003 1.47476355e-002 1.65800638e-002
      5.33003453e-003 7.92398676e-003 0. -3.52514721e-003 0.
      -1.77281065e-004 3.01169057e-004 1.65800638e-002 4.33085486e-003
      3.26669752e-003 7.66984234e-003 0. -7.15529779e-003 0.
      -1.22395614e-002 -7.40592228e-003 4.33085486e-003 2.19795085e-003
      2.56297598e-003 5.04637090e-003 0. -3.52514721e-003 0.
      -5.45365596e-003 -4.01551183e-003 2.19795085e-003 1.66762024e-002
      4.81462898e-003 7.94344023e-003 0. -4.84781922e-004 0.
      3.43261566e-003 1.14712282e-003 1.66762024e-002 1.59771815e-002
      1.99067243e-003 3.41213634e-003 0. -5.26186952e-004 0.
      1.89597125e-003 6.33601914e-004 1.59771815e-002 7.52190594e-004
      4.82595497e-004 2.10681045e-003 0. -1.93836528e-003 0.
      -4.17916104e-003 -3.14007746e-003 7.52190594e-004 7.15219532e-004
